{"learner":{"attributes":{},"feature_names":[],"feature_types":[],"gradient_booster":{"model":{"gbtree_model_param":{"num_parallel_tree":"1","num_trees":"100"},"iteration_indptr":[0,1,2,3,4,5,6,7,8,9,10,11,12,13,14,15,16,17,18,19,20,21,22,23,24,25,26,27,28,29,30,31,32,33,34,35,36,37,38,39,40,41,42,43,44,45,46,47,48,49,50,51,52,53,54,55,56,57,58,59,60,61,62,63,64,65,66,67,68,69,70,71,72,73,74,75,76,77,78,79,80,81,82,83,84,85,86,87,88,89,90,91,92,93,94,95,96,97,98,99,100],"tree_info":[0,0,0,0,0,0,0,0,0,0,0,0,0,0,0,0,0,0,0,0,0,0,0,0,0,0,0,0,0,0,0,0,0,0,0,0,0,0,0,0,0,0,0,0,0,0,0,0,0,0,0,0,0,0,0,0,0,0,0,0,0,0,0,0,0,0,0,0,0,0,0,0,0,0,0,0,0,0,0,0,0,0,0,0,0,0,0,0,0,0,0,0,0,0,0,0,0,0,0,0],"trees":[{"base_weights":[-3.474141E-6,-1.5784136E0,1.4153789E0,6.862259E-2,-1.6157316E0,1.7765535E0,5.92967E-1,-1.7480319E0,-9.238205E-1,1.3303889E0,1.9927518E-1,1.7464331E-1,7.440626E-2,-4.3740284E-2,-1.7811852E0,1.4444292E-1,-1.1821251E0,1.817415E0,2.4190526E-1,-1.2132713E0,1.4611219E0,-1.815859E0,-5.465506E-1,-6.43467E-2,1.130746E-1,-1.3968246E0,2.0412846E-2,6.901386E-2,1.9122134E-1,-1.09185435E-1,5.7636416E-1,-1.5786101E0,2.6253412E-2,1.6686432E-1,-2.0281423E-2,-7.451604E-2,-1.8392912E-1,2.4170585E-2,-1.09185435E-1,-3.1006563E-2,-1.5786101E-1,1.453887E-1,-5.8061047E-3,-6.43467E-2,-1.727286E-1,5.6783568E-2,-6.473343E-2],"categories":[],"categories_nodes":[],"categories_segments":[],"categories_sizes":[],"default_left":[0,0,0,0,0,0,0,0,0,0,0,0,0,0,0,0,0,0,0,0,0,0,0,0,0,0,0,0,0,0,0,0,0,0,0,0,0,0,0,0,0,0,0,0,0,0,0],"id":0,"left_children":[1,3,5,-1,7,9,11,13,15,17,-1,-1,19,-1,21,23,25,27,29,31,33,35,37,-1,-1,39,-1,-1,-1,-1,41,43,45,-1,-1,-1,-1,-1,-1,-1,-1,-1,-1,-1,-1,-1,-1],"loss_changes":[4.511421E2,9.17717E0,3.0571121E1,0E0,7.0101776E0,4.4365234E0,2.0200848E1,2.6091309E0,4.9292936E0,1.3869373E1,0E0,0E0,4.5508125E1,0E0,2.249405E0,4.029576E0,4.450735E0,6.567192E-1,4.8659782E0,6.039963E0,4.5671864E0,4.666443E-1,1.7680156E0,0E0,0E0,1.9299202E0,0E0,0E0,0E0,0E0,4.67614E0,3.1324577E-1,1.826457E0,0E0,0E0,0E0,0E0,0E0,0E0,0E0,0E0,0E0,0E0,0E0,0E0,0E0,0E0],"parents":[2147483647,0,0,1,1,2,2,4,4,5,5,6,6,7,7,8,8,9,9,12,12,14,14,15,15,16,16,17,17,18,18,19,19,20,20,21,21,22,22,25,25,30,30,31,31,32,32],"right_children":[2,4,6,-1,8,10,12,14,16,18,-1,-1,20,-1,22,24,26,28,30,32,34,36,38,-1,-1,40,-1,-1,-1,-1,42,44,46,-1,-1,-1,-1,-1,-1,-1,-1,-1,-1,-1,-1,-1,-1],"split_conditions":[-3.4431034E-1,-1.9136032E0,-1.9484228E-1,6.862259E-2,-6.865836E-1,-8.257632E-2,-8.180683E-1,-1.8418977E0,-7.74615E-1,-6.9334334E-1,1.9927518E-1,1.7464331E-1,-4.1238153E-1,-4.3740284E-2,1.9581317E0,-7.2857685E-2,1.1961502E0,-1.1766449E0,-9.6582675E-1,8.534396E-2,1.50924E0,-1.6065772E0,3.2557783E-1,-6.43467E-2,1.130746E-1,-1.0034654E0,2.0412846E-2,6.901386E-2,1.9122134E-1,-1.09185435E-1,-4.7883746E-1,-1.8420364E-1,-1.7435426E-1,1.6686432E-1,-2.0281423E-2,-7.451604E-2,-1.8392912E-1,2.4170585E-2,-1.09185435E-1,-3.1006563E-2,-1.5786101E-1,1.453887E-1,-5.8061047E-3,-6.43467E-2,-1.727286E-1,5.6783568E-2,-6.473343E-2],"split_indices":[5,14,18,0,5,14,14,6,3,14,0,0,14,0,16,19,11,11,19,11,16,12,8,0,0,17,0,0,0,0,17,5,4,0,0,0,0,0,0,0,0,0,0,0,0,0,0],"split_type":[0,0,0,0,0,0,0,0,0,0,0,0,0,0,0,0,0,0,0,0,0,0,0,0,0,0,0,0,0,0,0,0,0,0,0,0,0,0,0,0,0,0,0,0,0,0,0],"sum_hessian":[1.9993877E2,9.447106E1,1.054677E2,1.2496172E0,9.322145E1,7.24778E1,3.2989895E1,7.6976425E1,1.6245024E1,2.5992039E1,4.6485764E1,9.497091E0,2.3492805E1,2.249311E0,7.472711E1,3.2490048E0,1.2996019E1,1.7494642E1,8.497397E0,1.2246249E1,1.1246555E1,7.2227875E1,2.4992344E0,1.9993876E0,1.2496172E0,1.1246555E1,1.7494642E0,1.9993876E0,1.54952545E1,1.2496172E0,7.2477803E0,9.247168E0,2.9990814E0,9.996938E0,1.2496172E0,2.249311E0,6.997857E1,1.2496172E0,1.2496172E0,1.9993876E0,9.247168E0,2.4992344E0,4.7485456E0,1.9993876E0,7.2477803E0,1.7494642E0,1.2496172E0],"tree_param":{"num_deleted":"0","num_feature":"20","num_nodes":"47","size_leaf_vector":"1"}},{"base_weights":[4.0640656E-4,-1.439612E0,1.286163E0,1.8231566E-1,-1.4899585E0,1.5464349E0,3.5235518E-1,-1.0233704E-1,1.1888595E-1,-1.6169404E0,-8.430612E-1,1.0745502E0,1.8145594E-1,1.5094283E-1,-1.9723897E-1,-4.074908E-2,-1.6483986E0,1.4163627E-1,-1.0827909E0,1.6476823E0,-4.0094923E-2,-1.3519331E0,1.0402482E0,-5.3138506E-2,-1.6718867E0,9.089007E-2,-7.592216E-2,-1.2817912E0,1.9110728E-2,7.8565544E-1,1.7583315E-1,7.807215E-1,-5.480977E-1,-1.5936063E-1,-4.8145005E-1,-4.4245064E-2,1.3960543E0,-1.708293E-1,-8.3858736E-2,-1.5209115E-1,-4.7335956E-2,1.231807E-1,-2.0734821E-3,-3.593377E-2,1.3704151E-1,-9.543934E-2,5.715699E-2,2.7514517E-2,-1.0242748E-1,1.5998378E-1,2.0803599E-2],"categories":[],"categories_nodes":[],"categories_segments":[],"categories_sizes":[],"default_left":[0,0,0,0,0,0,0,0,0,0,0,0,0,0,0,0,0,0,0,0,0,0,0,0,0,0,0,0,0,0,0,0,0,0,0,0,0,0,0,0,0,0,0,0,0,0,0,0,0,0,0],"id":1,"left_children":[1,3,5,7,9,11,13,-1,-1,15,17,19,-1,-1,21,-1,23,25,27,29,31,33,35,-1,37,-1,-1,39,-1,41,-1,43,45,-1,47,-1,49,-1,-1,-1,-1,-1,-1,-1,-1,-1,-1,-1,-1,-1,-1],"loss_changes":[3.7114835E2,7.9929657E0,2.5193604E1,5.752681E0,6.179199E0,8.491226E0,1.5800236E1,0E0,0E0,2.2070465E0,4.2030897E0,2.073384E1,0E0,0E0,2.6286814E1,0E0,1.0377808E0,3.6229203E0,3.771799E0,6.587715E-1,5.4159184E0,1.219141E0,5.3497744E0,0E0,7.347107E-1,0E0,0E0,1.6311932E0,0E0,1.5513256E0,0E0,3.8442E0,4.1742277E0,0E0,1.7129877E0,0E0,1.4767647E0,0E0,0E0,0E0,0E0,0E0,0E0,0E0,0E0,0E0,0E0,0E0,0E0,0E0,0E0],"parents":[2147483647,0,0,1,1,2,2,3,3,4,4,5,5,6,6,9,9,10,10,11,11,14,14,16,16,17,17,18,18,19,19,20,20,21,21,22,22,24,24,27,27,29,29,31,31,32,32,34,34,36,36],"right_children":[2,4,6,8,10,12,14,-1,-1,16,18,20,-1,-1,22,-1,24,26,28,30,32,34,36,-1,38,-1,-1,40,-1,42,-1,44,46,-1,48,-1,50,-1,-1,-1,-1,-1,-1,-1,-1,-1,-1,-1,-1,-1,-1],"split_conditions":[-3.4431034E-1,-1.7419461E0,-3.8722377E-2,-2.9677927E0,-6.865836E-1,-8.257632E-2,-8.852896E-1,-1.0233704E-1,1.1888595E-1,-1.8418977E0,-7.74615E-1,-6.9334334E-1,1.8145594E-1,1.5094283E-1,-5.7130826E-1,-4.074908E-2,-2.0471668E0,5.4936904E-1,1.1961502E0,-1.1294856E0,-4.5335346E-1,7.936393E-1,-4.826718E-2,-5.3138506E-2,1.6494809E0,9.089007E-2,-7.592216E-2,8.5431737E-1,1.9110728E-2,-5.783661E-2,1.7583315E-1,-6.9941455E-1,4.8921183E-1,-1.5936063E-1,-3.0406526E-1,-4.4245064E-2,6.9382346E-1,-1.708293E-1,-8.3858736E-2,-1.5209115E-1,-4.7335956E-2,1.231807E-1,-2.0734821E-3,-3.593377E-2,1.3704151E-1,-9.543934E-2,5.715699E-2,2.7514517E-2,-1.0242748E-1,1.5998378E-1,2.0803599E-2],"split_indices":[5,14,18,5,5,14,14,0,0,6,3,14,0,0,14,0,7,1,11,11,17,7,1,0,19,0,0,16,0,16,0,19,0,0,0,0,15,0,0,0,0,0,0,0,0,0,0,0,0,0,0],"split_type":[0,0,0,0,0,0,0,0,0,0,0,0,0,0,0,0,0,0,0,0,0,0,0,0,0,0,0,0,0,0,0,0,0,0,0,0,0,0,0,0,0,0,0,0,0,0,0,0,0,0,0],"sum_hessian":[1.9845674E2,9.355622E1,1.0490052E2,2.7377448E0,9.0818474E1,8.1522446E1,2.3378075E1,1.238042E0,1.4997028E0,7.4663055E1,1.6155416E1,3.1352095E1,5.017035E1,6.9659853E0,1.6412088E1,2.246516E0,7.241654E1,3.24317E0,1.2912247E1,2.0389788E1,1.0962306E1,8.442212E0,7.9698763E0,1.9779022E0,7.043864E1,1.7466301E0,1.4965401E0,1.1162339E1,1.7499069E0,3.2409716E0,1.7148817E1,3.9856164E0,6.97669E0,5.957507E0,2.4847047E0,1.4952837E0,6.4745927E0,6.648396E1,3.9546742E0,7.9342213E0,3.2281182E0,1.7469045E0,1.4940672E0,1.4919176E0,2.4936988E0,5.227418E0,1.7492718E0,1.2439694E0,1.2407353E0,5.2307124E0,1.2438805E0],"tree_param":{"num_deleted":"0","num_feature":"20","num_nodes":"51","size_leaf_vector":"1"}},{"base_weights":[7.726057E-4,-1.3292276E0,1.1852287E0,1.6935651E-1,-1.3763872E0,1.4925907E0,4.8957986E-1,-9.730066E-2,1.1207741E-1,-1.4954497E0,-7.7687114E-1,1.1265609E0,1.6706894E-1,-1.1845745E-1,1.2416391E0,-3.7984982E-2,-1.5250325E0,-1.2951713E0,-2.9813504E-1,1.5360888E0,2.228269E-1,-5.966728E-1,1.0053922E0,3.2879633E-1,1.4151379E0,-4.9825624E-2,-1.5468267E0,-1.4773643E-1,-4.937726E-2,-9.8759574E-1,1.0141603E0,5.948819E-2,1.6156337E-1,-1.0041094E-1,5.301554E-1,1.1565941E-1,-1.3166356E0,-2.9907167E-2,1.3945615E-1,1.0377735E-1,-6.027757E-2,1.6076669E-1,2.6877558E-2,-1.5806694E-1,-7.785325E-2,-1.3213643E-1,3.3989277E-2,2.3851682E-2,1.2777354E-1,1.09361924E-1,-1.8050687E-2,-5.5052686E-2,-1.4292842E-1],"categories":[],"categories_nodes":[],"categories_segments":[],"categories_sizes":[],"default_left":[0,0,0,0,0,0,0,0,0,0,0,0,0,0,0,0,0,0,0,0,0,0,0,0,0,0,0,0,0,0,0,0,0,0,0,0,0,0,0,0,0,0,0,0,0,0,0,0,0,0,0,0,0],"id":2,"left_children":[1,3,5,7,9,11,13,-1,-1,15,17,19,-1,21,23,-1,25,27,29,31,33,35,37,39,41,-1,43,-1,-1,45,47,-1,-1,-1,49,-1,51,-1,-1,-1,-1,-1,-1,-1,-1,-1,-1,-1,-1,-1,-1,-1,-1],"loss_changes":[3.098368E2,6.780838E0,2.1513046E1,5.130493E0,5.2575226E0,2.7896423E0,1.54054785E1,0E0,0E0,1.8612518E0,3.827592E0,9.47546E0,0E0,1.1006618E1,1.9110451E0,0E0,8.339386E-1,4.1742706E-1,1.016421E1,3.9288712E-1,4.092596E0,1.94612E1,3.5403914E0,3.0685887E0,2.2837772E0,0E0,5.827637E-1,0E0,0E0,3.6151443E0,5.09192E-1,0E0,0E0,0E0,3.482958E0,0E0,1.22909546E-1,0E0,0E0,0E0,0E0,0E0,0E0,0E0,0E0,0E0,0E0,0E0,0E0,0E0,0E0,0E0,0E0],"parents":[2147483647,0,0,1,1,2,2,3,3,4,4,5,5,6,6,9,9,10,10,11,11,13,13,14,14,16,16,17,17,18,18,19,19,20,20,21,21,22,22,23,23,24,24,26,26,29,29,30,30,34,34,36,36],"right_children":[2,4,6,8,10,12,14,-1,-1,16,18,20,-1,22,24,-1,26,28,30,32,34,36,38,40,42,-1,44,-1,-1,46,48,-1,-1,-1,50,-1,52,-1,-1,-1,-1,-1,-1,-1,-1,-1,-1,-1,-1,-1,-1,-1,-1],"split_conditions":[-3.4431034E-1,-1.7419461E0,-1.9484228E-1,-2.9677927E0,-6.865836E-1,-8.257632E-2,8.534396E-2,-9.730066E-2,1.1207741E-1,-1.8418977E0,2.9460928E-1,-6.9334334E-1,1.6706894E-1,-3.1916785E-1,-1.0702554E0,-3.7984982E-2,-2.0471668E0,1.16959E0,-7.836852E-1,-1.1766449E0,-9.6582675E-1,-8.180683E-1,-1.04342796E-1,-1.0021445E0,9.3895715E-1,-4.9825624E-2,1.6494809E0,-1.4773643E-1,-4.937726E-2,1.0929592E0,3.8173416E-1,5.948819E-2,1.6156337E-1,-1.0041094E-1,1.065054E-1,1.1565941E-1,-1.8420364E-1,-2.9907167E-2,1.3945615E-1,1.0377735E-1,-6.027757E-2,1.6076669E-1,2.6877558E-2,-1.5806694E-1,-7.785325E-2,-1.3213643E-1,3.3989277E-2,2.3851682E-2,1.2777354E-1,1.09361924E-1,-1.8050687E-2,-5.5052686E-2,-1.4292842E-1],"split_indices":[5,14,18,5,5,14,11,0,0,6,18,14,0,14,13,0,7,3,14,11,19,14,6,14,13,0,19,0,0,19,2,0,0,0,19,0,5,0,0,0,0,0,0,0,0,0,0,0,0,0,0,0,0],"split_type":[0,0,0,0,0,0,0,0,0,0,0,0,0,0,0,0,0,0,0,0,0,0,0,0,0,0,0,0,0,0,0,0,0,0,0,0,0,0,0,0,0,0,0,0,0,0,0,0,0,0,0,0,0],"sum_hessian":[1.946809E2,9.164852E1,1.0303237E2,2.7170906E0,8.8931435E1,7.066465E1,3.236772E1,1.2243396E0,1.492751E0,7.294943E1,1.5982001E1,2.5526966E1,4.5137684E1,1.8363436E1,1.4004284E1,2.241988E0,7.070744E1,6.855042E0,9.12696E0,1.7085115E1,8.441851E0,1.3211023E1,5.1524124E0,2.6989853E0,1.1305299E1,1.9655935E0,6.874185E1,4.898024E0,1.9570179E0,6.145587E0,2.9813726E0,1.9921186E0,1.5092998E1,1.2368402E0,7.2050104E0,3.6692164E0,9.541807E0,1.2371382E0,3.9152741E0,1.4678608E0,1.2311246E0,9.335085E0,1.9702141E0,6.482883E1,3.9130235E0,4.914544E0,1.2310431E0,1.239304E0,1.7420685E0,3.7181342E0,3.486876E0,1.9778459E0,7.563961E0],"tree_param":{"num_deleted":"0","num_feature":"20","num_nodes":"53","size_leaf_vector":"1"}},{"base_weights":[1.6282697E-3,-1.2382019E0,1.1036885E0,5.730004E-2,-1.2697623E0,1.3327138E0,2.947197E-1,-1.3788674E0,-7.1820337E-1,9.242756E-1,1.5691993E-1,1.312135E-1,-1.8523023E-1,-1.3538115E-2,-1.3984951E0,-8.708358E-1,5.161435E-2,1.4303656E0,-3.316439E-2,-1.2020639E0,8.9938456E-1,-1.427982E0,-3.8984072E-1,-1.1047518E0,7.611444E-2,6.8925965E-1,1.5273917E-1,6.929145E-1,-4.804291E-1,-1.3533458E-1,-2.3172235E-2,-4.402242E-2,1.2345138E0,-4.9790148E-2,-1.4503495E-1,3.197923E-2,-9.242434E-2,-1.2739635E-1,9.141783E-3,-6.5989666E-2,7.740369E-2,-5.832127E-3,1.11823514E-1,-3.1841464E-2,1.219448E-1,-8.516555E-2,5.237759E-2,1.4191608E-1,1.7667409E-2],"categories":[],"categories_nodes":[],"categories_segments":[],"categories_sizes":[],"default_left":[0,0,0,0,0,0,0,0,0,0,0,0,0,0,0,0,0,0,0,0,0,0,0,0,0,0,0,0,0,0,0,0,0,0,0,0,0,0,0,0,0,0,0,0,0,0,0,0,0],"id":3,"left_children":[1,3,5,-1,7,9,11,13,15,17,-1,-1,19,-1,21,23,-1,25,27,29,31,33,35,37,39,41,-1,43,45,-1,-1,-1,47,-1,-1,-1,-1,-1,-1,-1,-1,-1,-1,-1,-1,-1,-1,-1,-1],"loss_changes":[2.6140726E2,5.873947E0,1.8372627E1,0E0,4.35347E0,6.1466675E0,1.178253E1,1.5935211E0,3.6055632E0,1.5201359E1,0E0,0E0,1.9756317E1,0E0,1.5789642E0,3.4688377E0,0E0,4.200325E-1,4.1623325E0,1.0321712E0,4.478684E0,7.2143555E-1,1.5906558E0,2.609724E0,2.546209E0,1.4100436E0,0E0,2.9998832E0,3.3864586E0,0E0,0E0,0E0,1.1701488E0,0E0,0E0,0E0,0E0,0E0,0E0,0E0,0E0,0E0,0E0,0E0,0E0,0E0,0E0,0E0,0E0],"parents":[2147483647,0,0,1,1,2,2,4,4,5,5,6,6,7,7,8,8,9,9,12,12,14,14,15,15,17,17,18,18,19,19,20,20,21,21,22,22,23,23,24,24,25,25,27,27,28,28,32,32],"right_children":[2,4,6,-1,8,10,12,14,16,18,-1,-1,20,-1,22,24,-1,26,28,30,32,34,36,38,40,42,-1,44,46,-1,-1,-1,48,-1,-1,-1,-1,-1,-1,-1,-1,-1,-1,-1,-1,-1,-1,-1,-1],"split_conditions":[-3.4431034E-1,-1.9136032E0,-3.8722377E-2,5.730004E-2,-6.865836E-1,-8.257632E-2,-8.852896E-1,-2.0648654E0,1.0347991E0,-6.9334334E-1,1.5691993E-1,1.312135E-1,-5.7130826E-1,-1.3538115E-2,1.9581317E0,8.5835123E-1,5.161435E-2,-1.1294856E0,-4.5335346E-1,9.011436E-1,-4.826718E-2,-1.6065772E0,3.736534E-1,1.0621674E0,2.357293E-1,-1.9458467E-1,1.5273917E-1,-6.9941455E-1,4.8921183E-1,-1.3533458E-1,-2.3172235E-2,-4.402242E-2,6.9382346E-1,-4.9790148E-2,-1.4503495E-1,3.197923E-2,-9.242434E-2,-1.2739635E-1,9.141783E-3,-6.5989666E-2,7.740369E-2,-5.832127E-3,1.11823514E-1,-3.1841464E-2,1.219448E-1,-8.516555E-2,5.237759E-2,1.4191608E-1,1.7667409E-2],"split_indices":[5,14,18,0,5,14,14,6,8,14,0,0,14,0,16,11,0,11,17,17,1,12,15,15,1,7,0,19,0,0,0,0,15,0,0,0,0,0,0,0,0,0,0,0,0,0,0,0,0],"split_type":[0,0,0,0,0,0,0,0,0,0,0,0,0,0,0,0,0,0,0,0,0,0,0,0,0,0,0,0,0,0,0,0,0,0,0,0,0,0,0,0,0,0,0,0,0,0,0,0,0],"sum_hessian":[1.8931534E2,8.903097E1,1.0028437E2,1.2309861E0,8.779998E1,7.7652824E1,2.2631546E1,7.204805E1,1.575193E1,3.0274155E1,4.7378674E1,6.6983147E0,1.5933231E1,1.2422825E0,7.080576E1,1.4280572E1,1.4713588E0,1.9482183E1,1.079197E1,8.167685E0,7.7655463E0,6.839072E1,2.4150527E0,1.1318123E1,2.9624488E0,3.1934903E0,1.6288694E1,3.9044127E0,6.8875575E0,6.7245736E0,1.4431112E0,1.4911983E0,6.274348E0,2.152352E0,6.6238365E1,1.20995E0,1.2051028E0,9.858492E0,1.4596306E0,1.468398E0,1.4940507E0,1.479388E0,1.7141023E0,1.4721229E0,2.4322898E0,5.1395288E0,1.7480289E0,5.0511065E0,1.2232416E0],"tree_param":{"num_deleted":"0","num_feature":"20","num_nodes":"49","size_leaf_vector":"1"}},{"base_weights":[3.1699545E-3,-1.1588818E0,1.0361358E0,1.7353585E-1,-1.2026532E0,1.312473E0,4.2328343E-1,-8.849208E-2,1.035998E-1,-1.314785E0,-6.612474E-1,9.844031E-1,1.476406E-1,-1.2449543E-1,1.1011635E0,-3.4435424E-1,-1.3475695E0,2.0917706E-1,-8.842448E-1,1.3546945E0,2.0321961E-1,-5.462638E-1,8.674809E-1,2.9038575E-1,1.2554432E0,-9.651581E-2,5.1014602E-2,-1.3804351E0,-6.3069177E-1,-4.8199374E-2,1.02341056E-1,-1.0613389E0,1.876046E-2,5.241661E-2,1.4287625E-1,5.361137E-1,-8.0007814E-2,1.0037962E-1,-1.1779484E0,-3.0162042E-2,1.23758115E-1,-5.5300225E-2,9.370655E-2,1.4361043E-1,2.1966971E-2,-3.6131363E-2,-1.4061649E-1,-1.0781194E-1,1.3250108E-2,-1.378737E-1,-4.5906298E-2,2.548583E-3,1.230639E-1,-4.6559367E-2,-1.2887344E-1],"categories":[],"categories_nodes":[],"categories_segments":[],"categories_sizes":[],"default_left":[0,0,0,0,0,0,0,0,0,0,0,0,0,0,0,0,0,0,0,0,0,0,0,0,0,0,0,0,0,0,0,0,0,0,0,0,0,0,0,0,0,0,0,0,0,0,0,0,0,0,0,0,0,0,0],"id":4,"left_children":[1,3,5,7,9,11,13,-1,-1,15,17,19,-1,21,23,25,27,29,31,33,35,37,39,41,43,-1,-1,45,47,-1,-1,49,-1,-1,-1,51,-1,-1,53,-1,-1,-1,-1,-1,-1,-1,-1,-1,-1,-1,-1,-1,-1,-1,-1],"loss_changes":[2.2187003E2,5.2817917E0,1.6015984E1,4.2401567E0,4.2510223E0,2.1481323E0,1.19771805E1,0E0,0E0,1.7267685E0,3.3843994E0,7.0470066E0,0E0,8.228046E0,1.4306984E0,2.3986802E0,6.9068146E-1,2.8402498E0,2.726138E0,2.9665184E-1,3.5406647E0,1.4516479E1,2.9328709E0,2.4790926E0,1.8845158E0,0E0,0E0,1.1313553E0,1.7635145E0,0E0,0E0,1.5798378E0,0E0,0E0,0E0,2.661949E0,0E0,0E0,1.9983673E-1,0E0,0E0,0E0,0E0,0E0,0E0,0E0,0E0,0E0,0E0,0E0,0E0,0E0,0E0,0E0,0E0],"parents":[2147483647,0,0,1,1,2,2,3,3,4,4,5,5,6,6,9,9,10,10,11,11,13,13,14,14,15,15,16,16,17,17,18,18,19,19,20,20,21,21,22,22,23,23,24,24,27,27,28,28,31,31,35,35,38,38],"right_children":[2,4,6,8,10,12,14,-1,-1,16,18,20,-1,22,24,26,28,30,32,34,36,38,40,42,44,-1,-1,46,48,-1,-1,50,-1,-1,-1,52,-1,-1,54,-1,-1,-1,-1,-1,-1,-1,-1,-1,-1,-1,-1,-1,-1,-1,-1],"split_conditions":[-3.4431034E-1,-1.7419461E0,-1.9484228E-1,-2.9677927E0,-6.865836E-1,-8.257632E-2,8.534396E-2,-8.849208E-2,1.035998E-1,-1.9670945E0,-7.74615E-1,-6.9334334E-1,1.476406E-1,-3.1916785E-1,-1.0702554E0,6.27577E-1,1.6494809E0,-7.2857685E-2,1.1961502E0,-1.1766449E0,6.4230126E-1,-8.180683E-1,-1.04342796E-1,-2.8121245E-1,9.3895715E-1,-9.651581E-2,5.1014602E-2,-1.6065772E0,-1.0329263E0,-4.8199374E-2,1.02341056E-1,1.07983924E-1,1.876046E-2,5.241661E-2,1.4287625E-1,4.4848546E-1,-8.0007814E-2,1.0037962E-1,-1.8420364E-1,-3.0162042E-2,1.23758115E-1,-5.5300225E-2,9.370655E-2,1.4361043E-1,2.1966971E-2,-3.6131363E-2,-1.4061649E-1,-1.0781194E-1,1.3250108E-2,-1.378737E-1,-4.5906298E-2,2.548583E-3,1.230639E-1,-4.6559367E-2,-1.2887344E-1],"split_indices":[5,14,18,5,5,14,11,0,0,7,3,14,0,14,13,1,19,19,11,11,12,14,6,12,13,0,0,12,5,0,0,13,0,0,0,0,0,0,5,0,0,0,0,0,0,0,0,0,0,0,0,0,0,0,0],"split_type":[0,0,0,0,0,0,0,0,0,0,0,0,0,0,0,0,0,0,0,0,0,0,0,0,0,0,0,0,0,0,0,0,0,0,0,0,0,0,0,0,0,0,0,0,0,0,0,0,0,0,0,0,0,0,0],"sum_hessian":[1.8283595E2,8.598444E1,9.68515E1,2.64055E0,8.3343895E1,6.596574E1,3.0885767E1,1.1738735E0,1.4666765E0,6.786066E1,1.5483234E1,2.4313456E1,4.165228E1,1.7533615E1,1.3352153E1,2.5935745E0,6.526708E1,3.1703608E0,1.2312874E1,1.5996666E1,8.31679E0,1.2618009E1,4.9156055E0,2.5953178E0,1.0756835E1,1.4271988E0,1.1663758E0,6.1521E1,3.7460845E0,1.9354626E0,1.2348982E0,1.0575384E1,1.7374903E0,1.9711288E0,1.4025537E1,6.594413E0,1.7223771E0,3.4827585E0,9.13525E0,1.2264454E0,3.6891603E0,1.189219E0,1.4060988E0,8.830161E0,1.9266737E0,1.8854082E0,5.9635593E1,2.1014497E0,1.6446347E0,6.081327E0,4.4940567E0,4.3977795E0,2.1966336E0,1.9297277E0,7.2055225E0],"tree_param":{"num_deleted":"0","num_feature":"20","num_nodes":"55","size_leaf_vector":"1"}},{"base_weights":[4.116597E-3,-1.0922397E0,9.7877175E-1,1.6268924E-1,-1.1343311E0,2.7241036E-1,1.1966089E0,-8.4758125E-2,9.8534435E-2,-1.2449036E0,-6.1408675E-1,-5.4842764E-1,1.061894E0,9.089722E-1,1.4052589E-1,-2.2811921E-2,-1.2760854E0,-1.0509069E0,-1.2935814E-1,7.881236E-2,-9.6858406E-1,1.2220443E0,-2.120255E-2,1.3224475E0,-2.7240906E-2,-1.3020011E0,-3.0147737E-2,-2.9424265E-1,-1.2986208E-1,-6.2587965E-1,6.613254E-1,-1.7654447E-1,-1.2203526E0,3.586026E-2,1.2822275E-1,7.0175016E-1,1.4007755E-1,-1.0198978E-1,2.556964E-1,-1.3366304E-1,-5.9548814E-2,-8.477254E-2,3.8026087E-2,5.2571613E-2,-1.21684305E-1,-4.6215665E-2,1.3038975E-1,-7.933118E-2,4.3999624E-2,-1.3126586E-1,-3.9640084E-2,1.11185424E-1,-1.0749894E-2,1.1837556E-1,-2.7070973E-2],"categories":[],"categories_nodes":[],"categories_segments":[],"categories_sizes":[],"default_left":[0,0,0,0,0,0,0,0,0,0,0,0,0,0,0,0,0,0,0,0,0,0,0,0,0,0,0,0,0,0,0,0,0,0,0,0,0,0,0,0,0,0,0,0,0,0,0,0,0,0,0,0,0,0,0],"id":5,"left_children":[1,3,5,7,9,11,13,-1,-1,15,17,19,21,23,-1,-1,25,27,29,-1,31,33,-1,35,37,39,-1,41,-1,43,45,47,49,-1,-1,51,-1,-1,53,-1,-1,-1,-1,-1,-1,-1,-1,-1,-1,-1,-1,-1,-1,-1,-1],"loss_changes":[1.8991151E2,4.602684E0,1.4150627E1,3.8179638E0,3.8980865E0,1.579202E1,3.0204697E0,0E0,0E0,1.7973862E0,3.290183E0,7.595357E0,2.769391E0,1.2786665E1,0E0,0E0,1.2162552E0,1.1868563E0,3.8727243E0,0E0,1.7198191E0,1.15852356E-1,0E0,1.2881088E-1,3.3700616E0,7.1468353E-1,0E0,1.575781E0,0E0,4.6723623E0,3.4070044E0,1.6837677E0,2.6877403E-2,0E0,0E0,1.6349871E0,0E0,0E0,4.9198146E0,0E0,0E0,0E0,0E0,0E0,0E0,0E0,0E0,0E0,0E0,0E0,0E0,0E0,0E0,0E0,0E0],"parents":[2147483647,0,0,1,1,2,2,3,3,4,4,5,5,6,6,9,9,10,10,11,11,12,12,13,13,16,16,17,17,18,18,20,20,21,21,23,23,24,24,25,25,27,27,29,29,30,30,31,31,32,32,35,35,38,38],"right_children":[2,4,6,8,10,12,14,-1,-1,16,18,20,22,24,-1,-1,26,28,30,-1,32,34,-1,36,38,40,-1,42,-1,44,46,48,50,-1,-1,52,-1,-1,54,-1,-1,-1,-1,-1,-1,-1,-1,-1,-1,-1,-1,-1,-1,-1,-1],"split_conditions":[-3.4431034E-1,-1.7419461E0,3.1498292E-1,-2.9677927E0,-6.865836E-1,-4.4644102E-1,-8.257632E-2,-8.4758125E-2,9.8534435E-2,-1.8418977E0,6.3193604E-2,-8.852896E-1,1.50924E0,-6.9334334E-1,1.4052589E-1,-2.2811921E-2,1.8286253E0,-8.480669E-1,2.4020584E-1,7.881236E-2,-3.5254624E-1,-2.6649463E-1,-2.120255E-2,-1.1294856E0,-9.6582675E-1,1.6494809E0,-3.0147737E-2,-5.387263E-1,-1.2986208E-1,-7.74615E-1,-3.0924392E-1,-7.7363986E-1,9.011436E-1,3.586026E-2,1.2822275E-1,-2.0560557E-2,1.4007755E-1,-1.0198978E-1,-4.5335346E-1,-1.3366304E-1,-5.9548814E-2,-8.477254E-2,3.8026087E-2,5.2571613E-2,-1.21684305E-1,-4.6215665E-2,1.3038975E-1,-7.933118E-2,4.3999624E-2,-1.3126586E-1,-3.9640084E-2,1.11185424E-1,-1.0749894E-2,1.1837556E-1,-2.7070973E-2],"split_indices":[5,14,5,5,5,14,14,0,0,6,2,14,16,14,0,0,10,4,13,0,3,1,0,11,19,19,0,11,0,3,16,13,17,0,0,16,0,0,17,0,0,0,0,0,0,0,0,0,0,0,0,0,0,0,0],"split_type":[0,0,0,0,0,0,0,0,0,0,0,0,0,0,0,0,0,0,0,0,0,0,0,0,0,0,0,0,0,0,0,0,0,0,0,0,0,0,0,0,0,0,0,0,0,0,0,0,0,0,0,0,0,0,0],"sum_hessian":[1.7572456E2,8.264236E1,9.308221E1,2.5889657E0,8.005339E1,2.2470293E1,7.0611916E1,1.1483824E0,1.4405831E0,6.487251E1,1.51808815E1,1.1166083E1,1.130421E1,3.193879E1,3.8673126E1,2.1776845E0,6.2694828E1,7.3706675E0,7.810214E0,2.4611576E0,8.704926E0,1.0077982E1,1.2262279E0,2.1868217E1,1.0070573E1,6.074367E1,1.9511573E0,2.3574524E0,5.013215E0,4.925565E0,2.8846493E0,2.5099823E0,6.1949434E0,1.1100929E0,8.967889E0,3.5663514E0,1.8301865E1,1.6559969E0,8.414577E0,5.7055264E1,3.6884062E0,1.1538305E0,1.2036217E0,1.7078764E0,3.217688E0,1.1517261E0,1.7329232E0,1.1114297E0,1.3985525E0,5.0374775E0,1.1574662E0,2.1187148E0,1.4476366E0,2.5934856E0,5.8210907E0],"tree_param":{"num_deleted":"0","num_feature":"20","num_nodes":"55","size_leaf_vector":"1"}},{"base_weights":[3.8980925E-3,-1.034305E0,9.273846E-1,-8.068922E-1,-1.3489771E0,1.1330365E0,2.3051238E-1,-1.0600616E0,-9.742071E-2,-1.3761368E-1,-2.7793908E-2,7.694645E-1,1.3553719E-1,1.1130826E0,-1.791547E-1,1.5285514E-1,-1.1563275E0,8.709891E-1,-5.66162E-1,1.220908E0,-1.9529982E-2,2.7332453E-2,1.2185701E-1,-1.0298901E0,7.303792E-1,-8.132671E-2,9.397827E-2,-1.2483497E-1,-3.159113E-1,5.962847E-3,1.2305845E-1,-7.662157E-1,5.264413E-2,5.758565E-1,1.313852E-1,-1.0204996E-1,2.5186872E-1,-1.2565048E-1,-2.842655E-1,-4.7437828E-2,1.0646495E0,-9.604376E-2,4.9388703E-2,-9.1539815E-2,1.4413058E-2,9.916487E-2,-1.0604686E-2,-9.722557E-2,6.1368704E-2,-7.885826E-2,3.339373E-2,1.2370973E-1,1.2828633E-2],"categories":[],"categories_nodes":[],"categories_segments":[],"categories_sizes":[],"default_left":[0,0,0,0,0,0,0,0,0,0,0,0,0,0,0,0,0,0,0,0,0,0,0,0,0,0,0,0,0,0,0,0,0,0,0,0,0,0,0,0,0,0,0,0,0,0,0,0,0,0,0,0,0],"id":6,"left_children":[1,3,5,7,9,11,13,15,17,-1,-1,19,-1,21,23,25,27,29,31,33,35,-1,-1,37,39,-1,-1,-1,41,-1,-1,43,-1,45,-1,-1,47,-1,49,-1,51,-1,-1,-1,-1,-1,-1,-1,-1,-1,-1,-1,-1],"loss_changes":[1.6311386E2,4.642929E0,1.2642242E1,8.694447E0,5.5160904E-1,4.556137E0,8.071093E0,4.3799324E0,6.840398E0,0E0,0E0,1.0209879E1,0E0,2.9062366E-1,1.2924255E1,3.4481955E0,2.1939087E0,1.3721805E0,2.5953336E0,3.348961E-1,3.3518019E0,0E0,0E0,1.0863342E0,3.8023672E0,0E0,0E0,0E0,2.8970234E0,0E0,0E0,1.3383856E0,0E0,1.2600132E0,0E0,0E0,4.9212866E0,0E0,1.2870785E0,0E0,9.2601824E-1,0E0,0E0,0E0,0E0,0E0,0E0,0E0,0E0,0E0,0E0,0E0,0E0],"parents":[2147483647,0,0,1,1,2,2,3,3,4,4,5,5,6,6,7,7,8,8,11,11,13,13,14,14,15,15,16,16,17,17,18,18,19,19,20,20,23,23,24,24,28,28,31,31,33,33,36,36,38,38,40,40],"right_children":[2,4,6,8,10,12,14,16,18,-1,-1,20,-1,22,24,26,28,30,32,34,36,-1,-1,38,40,-1,-1,-1,42,-1,-1,44,-1,46,-1,-1,48,-1,50,-1,52,-1,-1,-1,-1,-1,-1,-1,-1,-1,-1,-1,-1],"split_conditions":[-3.4431034E-1,4.1593525E-1,-3.8722377E-2,-7.630622E-1,1.8197718E0,-8.257632E-2,-8.852896E-1,-1.7419461E0,-3.8921958E-1,-1.3761368E-1,-2.7793908E-2,-6.9334334E-1,1.3553719E-1,-6.9941455E-1,-5.7130826E-1,-2.9677927E0,1.1903614E0,-5.968948E-1,3.4119198E-1,-1.1294856E0,-8.996187E-1,2.7332453E-2,1.2185701E-1,7.936393E-1,-4.826718E-2,-8.132671E-2,9.397827E-2,-1.2483497E-1,2.1907157E-1,5.962847E-3,1.2305845E-1,8.234232E-1,5.264413E-2,-5.323367E-2,1.313852E-1,-1.0204996E-1,-9.6582675E-1,-1.2565048E-1,-4.8298392E-1,-4.7437828E-2,6.9382346E-1,-9.604376E-2,4.9388703E-2,-9.1539815E-2,1.4413058E-2,9.916487E-2,-1.0604686E-2,-9.722557E-2,6.1368704E-2,-7.885826E-2,3.339373E-2,1.2370973E-1,1.2828633E-2],"split_indices":[5,14,18,14,12,14,14,14,14,0,0,14,0,19,14,5,16,6,14,11,3,0,0,7,1,0,0,0,13,0,0,19,0,8,0,0,19,0,11,0,15,0,0,0,0,0,0,0,0,0,0,0,0],"split_type":[0,0,0,0,0,0,0,0,0,0,0,0,0,0,0,0,0,0,0,0,0,0,0,0,0,0,0,0,0,0,0,0,0,0,0,0,0,0,0,0,0,0,0,0,0,0,0,0,0,0,0,0,0],"sum_hessian":[1.681284E2,7.9091774E1,8.903664E1,4.7980568E1,3.1111204E1,6.826521E1,2.077143E1,3.4997738E1,1.2982829E1,3.0063969E1,1.0472353E0,2.7597488E1,4.066772E1,6.040651E0,1.4730779E1,2.530203E0,3.2467537E1,3.954588E0,9.028241E0,1.7205498E1,1.0391992E1,1.0748792E0,4.9657717E0,7.543043E0,7.1877356E0,1.1207594E0,1.4094436E0,2.8825827E1,3.6417081E0,1.5724548E0,2.3821332E0,7.8835096E0,1.1447315E0,3.0731196E0,1.4132378E1,1.6278872E0,8.764104E0,5.2594023E0,2.2836409E0,1.4701084E0,5.717627E0,1.924199E0,1.7175093E0,6.7687373E0,1.1147722E0,1.6268855E0,1.446234E0,1.6145452E0,7.149559E0,1.105881E0,1.17776E0,4.557171E0,1.160456E0],"tree_param":{"num_deleted":"0","num_feature":"20","num_nodes":"53","size_leaf_vector":"1"}},{"base_weights":[4.093733E-3,-9.805079E-1,8.8121974E-1,-7.5779897E-1,-1.2942922E0,1.1340971E0,3.4448662E-1,-1.0063971E0,-8.2216226E-2,-1.3216516E-1,-2.6515583E-2,8.268933E-1,1.2984185E-1,-1.4797409E-1,9.592203E-1,1.4388776E-1,-1.099795E0,8.098947E-1,-5.240586E-1,1.174191E0,1.6824429E-1,-5.286904E-1,6.481151E-1,1.0746917E0,1.591739E-2,-7.8157865E-2,8.9849725E-2,-1.2404948E-1,-5.028678E-1,-7.6753953E-3,1.0948922E-1,-7.175673E-1,4.9496096E-2,4.2762633E-2,1.251489E-1,4.6170995E-1,-7.091896E-2,8.2840306E-1,-1.0957664E0,-3.4397237E-2,9.715829E-2,2.4726081E-1,1.2681666E-1,-9.766256E-2,4.303054E-2,-5.0877286E-3,-9.415077E-2,-7.252494E-4,1.117117E-1,2.2446597E-2,9.577474E-2,-3.4951914E-2,-1.23761654E-1,-4.6796694E-2,8.010361E-2],"categories":[],"categories_nodes":[],"categories_segments":[],"categories_sizes":[],"default_left":[0,0,0,0,0,0,0,0,0,0,0,0,0,0,0,0,0,0,0,0,0,0,0,0,0,0,0,0,0,0,0,0,0,0,0,0,0,0,0,0,0,0,0,0,0,0,0,0,0,0,0,0,0,0,0],"id":7,"left_children":[1,3,5,7,9,11,13,15,17,-1,-1,19,-1,21,23,25,27,29,31,33,35,37,39,41,-1,-1,-1,-1,43,-1,-1,45,-1,-1,-1,47,-1,49,51,-1,-1,53,-1,-1,-1,-1,-1,-1,-1,-1,-1,-1,-1,-1,-1],"loss_changes":[1.40214E2,4.3647614E0,1.1263176E1,7.836399E0,5.038681E-1,1.8505554E0,8.901215E0,3.8517952E0,5.853197E0,0E0,0E0,5.0501156E0,0E0,5.4741874E0,1.0301876E0,3.1228786E0,2.05653E0,1.3360574E0,2.2911408E0,3.2199097E-1,2.6674333E0,1.0145961E1,2.236137E0,1.4776669E0,0E0,0E0,0E0,0E0,3.8549604E0,0E0,0E0,1.2449088E0,0E0,0E0,0E0,2.2873497E0,0E0,1.0586262E-1,5.0922585E-1,0E0,0E0,1.7067344E0,0E0,0E0,0E0,0E0,0E0,0E0,0E0,0E0,0E0,0E0,0E0,0E0,0E0],"parents":[2147483647,0,0,1,1,2,2,3,3,4,4,5,5,6,6,7,7,8,8,11,11,13,13,14,14,15,15,16,16,17,17,18,18,19,19,20,20,21,21,22,22,23,23,28,28,31,31,35,35,37,37,38,38,41,41],"right_children":[2,4,6,8,10,12,14,16,18,-1,-1,20,-1,22,24,26,28,30,32,34,36,38,40,42,-1,-1,-1,-1,44,-1,-1,46,-1,-1,-1,48,-1,50,52,-1,-1,54,-1,-1,-1,-1,-1,-1,-1,-1,-1,-1,-1,-1,-1],"split_conditions":[-3.4431034E-1,4.1593525E-1,-1.9484228E-1,-7.630622E-1,1.8197718E0,-8.257632E-2,8.534396E-2,-1.7419461E0,-3.8921958E-1,-1.3216516E-1,-2.6515583E-2,-6.9334334E-1,1.2984185E-1,-4.1238153E-1,9.3895715E-1,-2.9677927E0,8.5431737E-1,8.479773E-2,3.4119198E-1,-1.1766449E0,6.4230126E-1,-8.180683E-1,-1.04342796E-1,-1.0702554E0,1.591739E-2,-7.8157865E-2,8.9849725E-2,-1.2404948E-1,7.7868277E-1,-7.6753953E-3,1.0948922E-1,-4.89944E-1,4.9496096E-2,4.2762633E-2,1.251489E-1,4.4848546E-1,-7.091896E-2,-2.724269E-1,-1.8420364E-1,-3.4397237E-2,9.715829E-2,-2.8121245E-1,1.2681666E-1,-9.766256E-2,4.303054E-2,-5.0877286E-3,-9.415077E-2,-7.252494E-4,1.117117E-1,2.2446597E-2,9.577474E-2,-3.4951914E-2,-1.23761654E-1,-4.6796694E-2,8.010361E-2],"split_indices":[5,14,18,14,12,14,11,14,14,0,0,14,0,14,13,5,16,2,14,11,12,14,6,13,0,0,0,0,0,0,0,4,0,0,0,0,0,0,5,0,0,12,0,0,0,0,0,0,0,0,0,0,0,0,0],"split_type":[0,0,0,0,0,0,0,0,0,0,0,0,0,0,0,0,0,0,0,0,0,0,0,0,0,0,0,0,0,0,0,0,0,0,0,0,0,0,0,0,0,0,0,0,0,0,0,0,0,0,0,0,0,0,0],"sum_hessian":[1.6035571E2,7.549374E1,8.486197E1,4.6152176E1,2.9341562E1,5.6927895E1,2.7934072E1,3.337961E1,1.2772566E1,2.8304852E1,1.0367103E0,2.194089E1,3.4987007E1,1.5931056E1,1.2003017E1,2.4661384E0,3.091347E1,3.9547176E0,8.817848E0,1.3853421E1,8.087469E0,1.1004316E1,4.926739E0,1.0189126E1,1.8138921E0,1.0916185E0,1.3745198E0,2.414435E1,6.7691207E0,1.1397023E0,2.815015E0,7.659213E0,1.1586356E0,1.9126561E0,1.1940765E1,6.415532E0,1.6719372E0,3.1072924E0,7.897024E0,1.1957967E0,3.7309425E0,2.3626823E0,7.826443E0,4.458861E0,2.3102596E0,2.2343998E0,5.4248133E0,4.316143E0,2.0993888E0,1.0306014E0,2.0766912E0,1.8146234E0,6.082401E0,1.0986605E0,1.2640219E0],"tree_param":{"num_deleted":"0","num_feature":"20","num_nodes":"55","size_leaf_vector":"1"}},{"base_weights":[5.533584E-3,-9.328547E-1,8.4235066E-1,-7.1419275E-1,-1.2473398E0,2.1518184E-1,1.0445812E0,-9.587772E-1,-7.1884155E-2,-1.2752253E-1,-2.5299657E-2,-4.8792684E-1,9.0071046E-1,7.7464575E-1,1.2550138E-1,1.3566883E-1,-1.0497211E0,7.4974036E-1,-4.869375E-1,6.470395E-1,-8.42179E-1,1.0664235E0,-2.4569938E-2,1.1690328E0,-3.366684E-2,-7.521851E-2,8.6083464E-2,-1.1435252E0,-2.598469E-1,1.8816454E-3,1.0849724E-1,3.3386536E-2,-7.3477477E-1,7.622505E-2,1.9697573E-2,-1.0910872E-1,-1.4647247E-1,4.3360868E-1,1.1853068E-1,5.9445417E-1,1.2501872E-1,7.9640105E-2,-3.02129E-1,-5.4261662E-2,-1.1977873E-1,-8.946772E-2,4.907864E-2,-1.6463908E-3,-1.1245066E-1,3.56835E-2,-5.492205E-2,-7.494343E-3,7.429588E-2,9.8737486E-2,-1.3177365E-2,1.913788E-2,-7.885811E-2],"categories":[],"categories_nodes":[],"categories_segments":[],"categories_sizes":[],"default_left":[0,0,0,0,0,0,0,0,0,0,0,0,0,0,0,0,0,0,0,0,0,0,0,0,0,0,0,0,0,0,0,0,0,0,0,0,0,0,0,0,0,0,0,0,0,0,0,0,0,0,0,0,0,0,0,0,0],"id":8,"left_children":[1,3,5,7,9,11,13,15,17,-1,-1,19,21,23,-1,25,27,29,31,33,35,37,-1,39,41,-1,-1,43,45,-1,-1,-1,47,-1,-1,-1,49,51,-1,53,-1,-1,55,-1,-1,-1,-1,-1,-1,-1,-1,-1,-1,-1,-1,-1,-1],"loss_changes":[1.214219E2,4.1216774E0,1.01416855E1,7.0533543E0,4.6916962E-1,1.0652264E1,2.5237656E0,3.402378E0,4.99738E0,0E0,0E0,5.0113173E0,2.3668756E0,9.466997E0,0E0,2.835504E0,1.9519081E0,1.193145E0,2.2045138E0,1.6198277E-2,1.3814821E0,2.283907E-1,0E0,1.8492126E-1,2.6182609E0,0E0,0E0,2.2515488E-1,2.5911813E0,0E0,0E0,0E0,2.1398454E0,0E0,0E0,0E0,9.0553325E-1,5.492621E-1,0E0,1.3770478E0,0E0,0E0,2.2604284E0,0E0,0E0,0E0,0E0,0E0,0E0,0E0,0E0,0E0,0E0,0E0,0E0,0E0,0E0],"parents":[2147483647,0,0,1,1,2,2,3,3,4,4,5,5,6,6,7,7,8,8,11,11,12,12,13,13,15,15,16,16,17,17,18,18,19,19,20,20,21,21,23,23,24,24,27,27,28,28,32,32,36,36,37,37,39,39,42,42],"right_children":[2,4,6,8,10,12,14,16,18,-1,-1,20,22,24,-1,26,28,30,32,34,36,38,-1,40,42,-1,-1,44,46,-1,-1,-1,48,-1,-1,-1,50,52,-1,54,-1,-1,56,-1,-1,-1,-1,-1,-1,-1,-1,-1,-1,-1,-1,-1,-1],"split_conditions":[-3.4431034E-1,4.1593525E-1,3.1498292E-1,-7.630622E-1,1.8197718E0,-4.4644102E-1,-8.257632E-2,-1.7419461E0,-3.8921958E-1,-1.2752253E-1,-2.5299657E-2,-8.852896E-1,1.50924E0,-6.9334334E-1,1.2550138E-1,-2.9677927E0,1.1903614E0,-5.968948E-1,-4.1775513E-1,-5.750582E-1,2.2421154E-1,-5.831657E-1,-2.4569938E-2,-1.1294856E0,-9.2058325E-1,-7.521851E-2,8.6083464E-2,-1.0984092E0,2.1907157E-1,1.8816454E-3,1.0849724E-1,3.3386536E-2,-4.89944E-1,7.622505E-2,1.9697573E-2,-1.0910872E-1,-3.2351494E-1,8.479773E-2,1.1853068E-1,-2.0560557E-2,1.2501872E-1,7.9640105E-2,-3.4182182E-1,-5.4261662E-2,-1.1977873E-1,-8.946772E-2,4.907864E-2,-1.6463908E-3,-1.1245066E-1,3.56835E-2,-5.492205E-2,-7.494343E-3,7.429588E-2,9.8737486E-2,-1.3177365E-2,1.913788E-2,-7.885811E-2],"split_indices":[5,14,5,14,12,14,14,14,14,0,0,14,16,14,0,5,16,6,11,9,18,11,0,11,13,0,0,7,13,0,0,0,4,0,0,0,9,2,0,16,0,0,4,0,0,0,0,0,0,0,0,0,0,0,0,0,0],"split_type":[0,0,0,0,0,0,0,0,0,0,0,0,0,0,0,0,0,0,0,0,0,0,0,0,0,0,0,0,0,0,0,0,0,0,0,0,0,0,0,0,0,0,0,0,0,0,0,0,0,0,0,0,0,0,0,0,0],"sum_hessian":[1.5262581E2,7.189244E1,8.073337E1,4.4336323E1,2.7556118E1,2.0188297E1,6.0545074E1,3.1752571E1,1.2583752E1,2.652964E1,1.026478E0,1.0108657E1,1.0079641E1,2.8573374E1,3.1971699E1,2.3983486E0,2.9354223E1,3.95272E0,8.631032E0,2.2080214E0,7.9006352E0,8.867604E0,1.2120371E0,1.8903719E1,9.669655E0,1.0614755E0,1.3368729E0,2.5838013E1,3.51621E0,1.5749354E0,2.3777845E0,1.9211925E0,6.7098393E0,1.2057209E0,1.0023005E0,5.4002366E0,2.5003989E0,2.137429E0,6.730175E0,3.3698556E0,1.5533863E1,1.8825134E0,7.787142E0,3.0509646E0,2.2787048E1,1.801087E0,1.7151229E0,2.72664E0,3.9831994E0,1.1621184E0,1.3382804E0,1.0950216E0,1.0424075E0,1.953392E0,1.4164636E0,4.166645E0,3.6204967E0],"tree_param":{"num_deleted":"0","num_feature":"20","num_nodes":"57","size_leaf_vector":"1"}},{"base_weights":[6.343234E-3,-8.9024246E-1,8.06633E-1,-6.7529297E-1,-1.2064811E0,1.1310619E0,4.275579E-1,-9.1592246E-1,-6.4217076E-2,-1.2351771E-1,-2.4142608E-2,2.1442854E-1,1.180144E0,1.0715951E0,-1.4704431E-2,1.2810193E-1,-1.0046237E0,7.0055276E-1,-4.5630583E-1,-4.5810115E-2,7.3778674E-2,1.6657738E-2,1.2095727E0,4.1277155E-1,1.1604015E-1,-7.2079676E-1,9.344E-1,-7.248104E-2,8.262673E-2,-1.0823004E0,-9.860778E-2,-9.801176E-3,9.6342735E-2,3.0976221E-2,-6.9544894E-1,1.2300025E0,2.6469743E-2,-2.4413114E-2,7.989008E-2,-9.6870005E-1,2.393847E-1,1.1124617E0,-1.2948829E-2,-1.15874425E-1,-4.515063E-2,-7.4558586E-2,7.16533E-2,-1.0852485E-1,2.4572402E-4,3.016415E-2,1.24931686E-1,-1.2028034E-1,-2.39205E-2,6.929414E-2,-3.1723753E-2,1.18563116E-1,2.6893416E-2],"categories":[],"categories_nodes":[],"categories_segments":[],"categories_sizes":[],"default_left":[0,0,0,0,0,0,0,0,0,0,0,0,0,0,0,0,0,0,0,0,0,0,0,0,0,0,0,0,0,0,0,0,0,0,0,0,0,0,0,0,0,0,0,0,0,0,0,0,0,0,0,0,0,0,0,0,0],"id":9,"left_children":[1,3,5,7,9,11,13,15,17,-1,-1,19,21,23,25,27,29,31,33,-1,-1,-1,35,37,-1,39,41,-1,-1,43,45,-1,-1,-1,47,49,-1,-1,-1,51,53,55,-1,-1,-1,-1,-1,-1,-1,-1,-1,-1,-1,-1,-1,-1,-1],"loss_changes":[1.05497894E2,3.899109E0,9.070026E0,6.345787E0,4.437027E-1,1.6028175E0,1.0677622E1,3.015686E0,4.332104E0,0E0,0E0,1.5060358E0,9.597702E-1,4.134426E-1,1.6206928E1,2.5807104E0,1.9234066E0,1.1292691E0,1.9469374E0,0E0,0E0,0E0,4.0166473E-1,1.0482951E0,0E0,3.5299397E0,2.0996847E0,0E0,0E0,7.531452E-1,2.3157787E0,0E0,0E0,0E0,2.0460157E0,2.794571E-1,0E0,0E0,0E0,1.6267681E0,1.1400528E0,2.333889E-1,0E0,0E0,0E0,0E0,0E0,0E0,0E0,0E0,0E0,0E0,0E0,0E0,0E0,0E0,0E0],"parents":[2147483647,0,0,1,1,2,2,3,3,4,4,5,5,6,6,7,7,8,8,11,11,12,12,13,13,14,14,15,15,16,16,17,17,18,18,22,22,23,23,25,25,26,26,29,29,30,30,34,34,35,35,39,39,40,40,41,41],"right_children":[2,4,6,8,10,12,14,16,18,-1,-1,20,22,24,26,28,30,32,34,-1,-1,-1,36,38,-1,40,42,-1,-1,44,46,-1,-1,-1,48,50,-1,-1,-1,52,54,56,-1,-1,-1,-1,-1,-1,-1,-1,-1,-1,-1,-1,-1,-1,-1],"split_conditions":[-3.4431034E-1,4.1593525E-1,-2.2621427E-1,-7.630622E-1,1.8197718E0,-1.7951292E0,-8.180683E-1,-1.7419461E0,-3.8921958E-1,-1.2351771E-1,-2.4142608E-2,-8.654616E-2,-1.8537322E0,-9.900137E-1,-3.8921958E-1,-2.9677927E0,1.3349468E0,8.479773E-2,-4.1775513E-1,-4.5810115E-2,7.3778674E-2,1.6657738E-2,1.9422456E0,-6.3688236E-1,1.1604015E-1,5.817234E-1,1.50924E0,-7.248104E-2,8.262673E-2,1.1209365E0,1.9839352E-1,-9.801176E-3,9.6342735E-2,3.0976221E-2,2.4229118E-1,-1.7793989E0,2.6469743E-2,-2.4413114E-2,7.989008E-2,4.473863E-1,4.559684E-1,9.679319E-1,-1.2948829E-2,-1.15874425E-1,-4.515063E-2,-7.4558586E-2,7.16533E-2,-1.0852485E-1,2.4572402E-4,3.016415E-2,1.24931686E-1,-1.2028034E-1,-2.39205E-2,6.929414E-2,-3.1723753E-2,1.18563116E-1,2.6893416E-2],"split_indices":[5,14,1,14,12,15,14,14,14,0,0,16,8,0,14,5,8,2,11,0,0,0,0,2,0,11,16,0,0,19,16,0,0,0,0,3,0,0,0,10,9,12,0,0,0,0,0,0,0,0,0,0,0,0,0,0,0],"split_type":[0,0,0,0,0,0,0,0,0,0,0,0,0,0,0,0,0,0,0,0,0,0,0,0,0,0,0,0,0,0,0,0,0,0,0,0,0,0,0,0,0,0,0,0,0,0,0,0,0,0,0,0,0,0,0,0,0],"sum_hessian":[1.4502878E2,6.834626E1,7.668251E1,4.2556034E1,2.5790228E1,4.0250587E1,3.6431927E1,3.0174892E1,1.2381142E1,2.4773678E1,1.01655E0,2.318584E0,3.7932003E1,1.42531E1,2.2178827E1,2.3281446E0,2.7846746E1,3.9296439E0,8.451497E0,1.0692532E0,1.249331E0,1.2582026E0,3.66738E1,2.36393E0,1.1889171E1,1.2855469E1,9.323358E0,1.0307574E0,1.2973871E0,2.5468637E1,2.3781106E0,1.1285305E0,2.8011134E0,1.9403865E0,6.511111E0,3.5602257E1,1.0715415E0,1.011264E0,1.3526659E0,1.0210429E1,2.6450396E0,7.947532E0,1.3758254E0,2.1969294E1,3.4993439E0,1.3733834E0,1.0047271E0,3.8216236E0,2.6894872E0,1.0642755E0,3.4537983E1,7.2386484E0,2.971781E0,1.3225069E0,1.3225327E0,6.93998E0,1.007552E0],"tree_param":{"num_deleted":"0","num_feature":"20","num_nodes":"57","size_leaf_vector":"1"}},{"base_weights":[6.933984E-3,-8.509088E-1,7.7295524E-1,-6.389181E-1,-1.1704772E0,1.152741E0,4.6232146E-1,-8.754741E-1,-5.8734484E-2,-1.2002402E-1,-2.3041183E-2,2.8804144E-2,1.1724682E0,1.052438E0,9.395865E-2,3.975258E-2,-9.3660986E-1,6.5109175E-1,-4.281324E-1,3.3529483E-2,1.1898632E0,4.654556E-1,1.1324826E0,-7.171954E-1,7.494163E-1,-1.1211967E-1,-3.0006397E-1,-1.4258563E-3,9.68859E-2,-6.1339164E-1,4.6296176E-2,4.021455E-2,1.21028386E-1,-2.0478817E-2,8.354131E-2,1.19176164E-1,2.879597E-2,-7.505561E-2,-1.058607E0,8.6932683E-1,-3.9598163E-2,-7.037548E-2,4.889154E-2,-9.003399E-2,-5.7902285E-3,-6.7833714E-2,3.9350297E-2,-1.197428E-1,-2.5363943E-2,1.005518E-1,-3.1392414E-2],"categories":[],"categories_nodes":[],"categories_segments":[],"categories_sizes":[],"default_left":[0,0,0,0,0,0,0,0,0,0,0,0,0,0,0,0,0,0,0,0,0,0,0,0,0,0,0,0,0,0,0,0,0,0,0,0,0,0,0,0,0,0,0,0,0,0,0,0,0,0,0],"id":10,"left_children":[1,3,5,7,9,11,13,15,17,-1,-1,-1,19,21,23,-1,25,27,29,-1,31,33,35,37,39,-1,41,-1,-1,43,-1,-1,-1,-1,-1,-1,-1,45,47,49,-1,-1,-1,-1,-1,-1,-1,-1,-1,-1,-1],"loss_changes":[9.175927E1,3.7148705E0,8.169056E0,5.686165E0,4.2486954E-1,2.1696472E-1,9.084093E0,2.6779194E0,3.7346942E0,0E0,0E0,0E0,5.9272766E-2,2.3109055E-1,1.4949712E1,0E0,3.0199528E0,1.0514984E0,1.8146498E0,0E0,2.8305054E-3,1.0722563E0,3.3281708E-1,2.6885247E0,2.4705381E0,0E0,2.8242035E0,0E0,0E0,1.2399929E0,0E0,0E0,0E0,0E0,0E0,0E0,0E0,1.8100257E0,6.088896E-1,2.624466E0,0E0,0E0,0E0,0E0,0E0,0E0,0E0,0E0,0E0,0E0,0E0],"parents":[2147483647,0,0,1,1,2,2,3,3,4,4,5,5,6,6,7,7,8,8,12,12,13,13,14,14,16,16,17,17,18,18,20,20,21,21,22,22,23,23,24,24,26,26,29,29,37,37,38,38,39,39],"right_children":[2,4,6,8,10,12,14,16,18,-1,-1,-1,20,22,24,-1,26,28,30,-1,32,34,36,38,40,-1,42,-1,-1,44,-1,-1,-1,-1,-1,-1,-1,46,48,50,-1,-1,-1,-1,-1,-1,-1,-1,-1,-1,-1],"split_conditions":[-3.4431034E-1,4.1593525E-1,-3.7236723E-1,-7.630622E-1,1.8197718E0,-1.7793989E0,-8.180683E-1,-1.9136032E0,-3.8921958E-1,-1.2002402E-1,-2.3041183E-2,2.8804144E-2,-1.8831502E0,-9.900137E-1,-4.399353E-1,3.975258E-2,8.5431737E-1,-5.968948E-1,3.4119198E-1,3.3529483E-2,-1.9078076E0,-3.4942496E-1,1.5868996E0,-3.5254624E-1,1.6858702E0,-1.1211967E-1,7.7868277E-1,-1.4258563E-3,9.68859E-2,2.3384802E-1,4.6296176E-2,4.021455E-2,1.21028386E-1,-2.0478817E-2,8.354131E-2,1.19176164E-1,2.879597E-2,-4.310011E-1,1.2364895E0,4.4510552E-1,-3.9598163E-2,-7.037548E-2,4.889154E-2,-9.003399E-2,-5.7902285E-3,-6.7833714E-2,3.9350297E-2,-1.197428E-1,-2.5363943E-2,1.005518E-1,-3.1392414E-2],"split_indices":[5,14,1,14,12,3,14,14,14,0,0,0,8,0,14,0,16,6,14,0,15,6,8,3,12,0,0,0,0,19,0,0,0,0,0,0,0,11,3,14,0,0,0,0,0,0,0,0,0,0,0],"split_type":[0,0,0,0,0,0,0,0,0,0,0,0,0,0,0,0,0,0,0,0,0,0,0,0,0,0,0,0,0,0,0,0,0,0,0,0,0,0,0,0,0,0,0,0,0,0,0,0,0,0,0],"sum_hessian":[1.376364E2,6.4874596E1,7.276181E1,4.080516E1,2.4069435E1,3.1517317E1,4.124449E1,2.8625027E1,1.2180132E1,2.3062502E1,1.0069338E0,1.0509846E0,3.0466333E1,1.5137375E1,2.6107115E1,1.0595795E0,2.7565447E1,3.9080129E0,8.2721195E0,1.0328622E0,2.9433472E1,2.634326E0,1.2503049E1,1.1625689E1,1.4481426E1,2.077864E1,6.7868066E0,1.5718842E0,2.3361287E0,7.1063466E0,1.165773E0,1.2666397E0,2.8166832E1,1.0957092E0,1.5386168E0,1.1298796E1,1.2042536E0,4.4589553E0,7.166733E0,1.3327238E1,1.1541885E0,4.561089E0,2.2257175E0,4.2764583E0,2.8298883E0,1.7535297E0,2.7054257E0,5.696749E0,1.4699836E0,1.2086321E1,1.240917E0],"tree_param":{"num_deleted":"0","num_feature":"20","num_nodes":"51","size_leaf_vector":"1"}},{"base_weights":[7.2623156E-3,-8.12709E-1,7.395635E-1,-6.0245264E-1,-1.1383718E0,1.1070852E0,4.2567825E-1,-3.1733662E-2,-8.3729255E-1,-1.17184274E-1,-4.1157834E-2,4.482611E-1,1.143743E0,1.006244E0,6.6667244E-2,-5.793764E-1,5.5173266E-1,3.7195664E-2,-9.146918E-1,6.798975E-2,-3.3874232E-3,3.834041E-2,1.1638258E0,4.430571E-1,1.0879265E0,-6.655123E-1,6.7681783E-1,-8.549039E-1,4.5322236E-2,-1.6237056E-1,9.7418064E-1,1.4269635E-1,-1.0152266E0,3.2398947E-2,1.18500546E-1,-1.9313602E-2,8.046653E-2,1.1495628E-1,2.7451694E-2,-8.3263004E-1,4.077649E-2,7.9743665E-1,-3.7386775E-2,-1.0306622E-1,-1.5579027E-2,-6.900306E-2,3.958123E-2,1.2213639E-1,1.0620124E-2,7.339549E-2,-4.8213724E-2,-1.13922015E-1,-2.372403E-2,-2.9743338E-2,-1.10194504E-1,6.7432816E-3,1.0035864E-1],"categories":[],"categories_nodes":[],"categories_segments":[],"categories_sizes":[],"default_left":[0,0,0,0,0,0,0,0,0,0,0,0,0,0,0,0,0,0,0,0,0,0,0,0,0,0,0,0,0,0,0,0,0,0,0,0,0,0,0,0,0,0,0,0,0,0,0,0,0,0,0,0,0,0,0,0,0],"id":11,"left_children":[1,3,5,7,9,11,13,15,17,-1,-1,19,21,23,25,27,29,-1,31,-1,-1,-1,33,35,37,39,41,43,-1,45,47,49,51,-1,-1,-1,-1,-1,-1,53,-1,55,-1,-1,-1,-1,-1,-1,-1,-1,-1,-1,-1,-1,-1,-1,-1],"loss_changes":[7.959553E1,3.5964012E0,7.605789E0,5.3516035E0,8.721733E-2,2.5114822E-1,8.142634E0,4.389685E0,2.9973736E0,0E0,0E0,3.928687E-1,1.4343262E-3,2.0707512E-1,1.1801705E1,2.3955941E0,2.1731198E0,0E0,3.012022E0,0E0,0E0,0E0,1.1537552E-1,9.800131E-1,3.0585003E-1,2.501536E0,2.1174197E0,5.666113E-1,0E0,1.2567878E0,8.0132675E-1,1.5429004E0,2.1175022E0,0E0,0E0,0E0,0E0,0E0,0E0,1.2229476E0,0E0,1.9182253E0,0E0,0E0,0E0,0E0,0E0,0E0,0E0,0E0,0E0,0E0,0E0,0E0,0E0,0E0,0E0],"parents":[2147483647,0,0,1,1,2,2,3,3,4,4,5,5,6,6,7,7,8,8,11,11,12,12,13,13,14,14,15,15,16,16,18,18,22,22,23,23,24,24,25,25,26,26,27,27,29,29,30,30,31,31,32,32,39,39,41,41],"right_children":[2,4,6,8,10,12,14,16,18,-1,-1,20,22,24,26,28,30,-1,32,-1,-1,-1,34,36,38,40,42,44,-1,46,48,50,52,-1,-1,-1,-1,-1,-1,54,-1,56,-1,-1,-1,-1,-1,-1,-1,-1,-1,-1,-1,-1,-1,-1,-1],"split_conditions":[-3.4431034E-1,4.1593525E-1,-3.4946343E-1,5.4022056E-1,1.7123047E0,-1.5179491E0,-8.180683E-1,1.7852917E-1,-1.9670945E0,-1.17184274E-1,-4.1157834E-2,2.9746205E-1,-1.9078076E0,-9.900137E-1,-4.399353E-1,6.617366E-1,-7.836852E-1,3.7195664E-2,-1.7419461E0,6.798975E-2,-3.3874232E-3,3.834041E-2,-1.6382457E0,-3.4942496E-1,1.5868996E0,9.778476E-1,1.6858702E0,5.817234E-1,4.5322236E-2,-6.4212716E-1,-1.6358586E-1,1.7504116E0,1.1903614E0,3.2398947E-2,1.18500546E-1,-1.9313602E-2,8.046653E-2,1.1495628E-1,2.7451694E-2,-3.2351494E-1,4.077649E-2,-7.7496284E-1,-3.7386775E-2,-1.0306622E-1,-1.5579027E-2,-6.900306E-2,3.958123E-2,1.2213639E-1,1.0620124E-2,7.339549E-2,-4.8213724E-2,-1.13922015E-1,-2.372403E-2,-2.9743338E-2,-1.10194504E-1,6.7432816E-3,1.0035864E-1],"split_indices":[5,14,1,18,3,4,14,2,7,0,0,6,15,0,14,19,14,0,14,0,0,0,19,6,8,11,12,11,0,10,14,1,16,0,0,0,0,0,0,9,0,6,0,0,0,0,0,0,0,0,0,0,0,0,0,0,0],"split_type":[0,0,0,0,0,0,0,0,0,0,0,0,0,0,0,0,0,0,0,0,0,0,0,0,0,0,0,0,0,0,0,0,0,0,0,0,0,0,0,0,0,0,0,0,0,0,0,0,0,0,0,0,0,0,0,0,0],"sum_hessian":[1.3055531E2,6.1539066E1,6.901624E1,3.9127357E1,2.2411709E1,3.0627773E1,3.8388466E1,1.1737491E1,2.7389868E1,2.0839638E1,1.5720705E0,2.3115816E0,2.831619E1,1.3979326E1,2.4409142E1,6.0582314E0,5.6792593E0,1.4187235E0,2.5971146E1,1.2843506E0,1.0272311E0,1.2456784E0,2.7070513E1,2.5844107E0,1.1394916E1,1.105383E1,1.335531E1,4.91804E0,1.1401914E0,2.3397703E0,3.3394887E0,2.218491E0,2.3752653E1,1.0667791E0,2.6003735E1,1.1054469E0,1.4789637E0,1.0208129E1,1.1867869E0,9.758563E0,1.2952676E0,1.2196216E1,1.1590945E0,3.551057E0,1.3669827E0,1.0813462E0,1.2584243E0,2.2823782E0,1.0571104E0,1.0501394E0,1.1683515E0,2.008693E1,3.6657238E0,3.9711988E0,5.7873635E0,2.9779615E0,9.218254E0],"tree_param":{"num_deleted":"0","num_feature":"20","num_nodes":"57","size_leaf_vector":"1"}},{"base_weights":[8.587411E-3,-6.4484763E-1,8.597495E-1,-8.987021E-1,-1.3581394E-1,5.4014415E-1,1.1489918E-1,5.6613465E-3,-9.4152594E-1,-5.494527E-1,2.482323E-1,1.0506313E0,-1.1120368E-1,7.516054E-3,-9.868787E-1,1.6529395E-1,-9.6191466E-1,-3.814459E-1,4.5268235E-1,1.14860736E-1,3.7404954E-1,5.559766E-1,-4.5058456E-1,-1.0208514E0,-1.6865423E-3,-5.0714966E-2,5.8474666E-1,-1.1824049E-1,-2.1422993E-1,2.3554103E-2,-7.2446935E-2,1.049574E-1,1.3803285E-1,7.1028896E-2,-2.0008322E-2,-1.2938462E-2,8.736112E-2,-6.449536E-1,5.3736586E-2,-1.0603732E-1,-3.9906923E-2,-7.0721544E-3,9.655429E-2,-4.7670085E-2,1.5423226E-2,-2.8885378E-2,4.6717457E-2,1.5192347E-2,-8.4905565E-2],"categories":[],"categories_nodes":[],"categories_segments":[],"categories_sizes":[],"default_left":[0,0,0,0,0,0,0,0,0,0,0,0,0,0,0,0,0,0,0,0,0,0,0,0,0,0,0,0,0,0,0,0,0,0,0,0,0,0,0,0,0,0,0,0,0,0,0,0,0],"id":12,"left_children":[1,3,5,7,9,11,-1,-1,13,15,17,19,21,-1,23,25,27,29,31,-1,33,35,37,39,-1,-1,41,-1,43,-1,-1,-1,45,-1,-1,-1,-1,47,-1,-1,-1,-1,-1,-1,-1,-1,-1,-1,-1],"loss_changes":[6.9941055E1,9.071566E0,4.4276314E0,1.9881287E0,4.084362E0,9.3704605E0,0E0,0E0,2.163948E0,3.778159E0,1.9204197E0,6.109543E-1,3.224029E0,0E0,1.414875E0,1.8042911E0,1.0541654E0,9.897495E-1,1.8657892E0,0E0,8.117132E-1,1.1743864E0,2.1241367E0,6.082115E-1,0E0,0E0,1.0059007E0,0E0,3.6630905E-1,0E0,0E0,0E0,1.281718E0,0E0,0E0,0E0,0E0,1.4609723E0,0E0,0E0,0E0,0E0,0E0,0E0,0E0,0E0,0E0,0E0,0E0],"parents":[2147483647,0,0,1,1,2,2,3,3,4,4,5,5,8,8,9,9,10,10,11,11,12,12,14,14,15,15,16,16,17,17,18,18,20,20,21,21,22,22,23,23,26,26,28,28,32,32,37,37],"right_children":[2,4,6,8,10,12,-1,-1,14,16,18,20,22,-1,24,26,28,30,32,-1,34,36,38,40,-1,-1,42,-1,44,-1,-1,-1,46,-1,-1,-1,-1,48,-1,-1,-1,-1,-1,-1,-1,-1,-1,-1,-1],"split_conditions":[7.711125E-2,-6.865836E-1,-8.257632E-2,-1.7419461E0,6.3193604E-2,-7.848149E-1,1.1489918E-1,5.6613465E-3,-1.8418977E0,-7.2396475E-1,-1.0684375E0,2.538034E0,-4.4258928E-1,7.516054E-3,1.8286253E0,-5.387263E-1,7.936393E-1,-4.1775513E-1,-5.2466875E-1,1.14860736E-1,-5.387862E-1,-6.9941455E-1,1.0445265E0,1.6494809E0,-1.6865423E-3,-5.0714966E-2,-1.5032046E-1,-1.1824049E-1,-7.5027004E-2,2.3554103E-2,-7.2446935E-2,1.049574E-1,-1.7909329E-1,7.1028896E-2,-2.0008322E-2,-1.2938462E-2,8.736112E-2,-5.9964E-1,5.3736586E-2,-1.0603732E-1,-3.9906923E-2,-7.0721544E-3,9.655429E-2,-4.7670085E-2,1.5423226E-2,-2.8885378E-2,4.6717457E-2,1.5192347E-2,-8.4905565E-2],"split_indices":[5,5,14,14,2,14,0,0,6,4,9,5,17,0,10,11,7,11,6,0,1,19,16,19,0,0,7,0,8,0,0,0,16,0,0,0,0,16,0,0,0,0,0,0,0,0,0,0,0],"split_type":[0,0,0,0,0,0,0,0,0,0,0,0,0,0,0,0,0,0,0,0,0,0,0,0,0,0,0,0,0,0,0,0,0,0,0,0,0,0,0,0,0,0,0,0,0,0,0,0,0],"sum_hessian":[1.23755936E2,7.01468E1,5.360914E1,4.6294357E1,2.3852442E1,2.6830061E1,2.6779078E1,1.9723812E0,4.4321976E1,1.1276423E1,1.2576018E1,1.4697801E1,1.2132259E1,1.8646362E0,4.245734E1,4.345481E0,6.9309425E0,2.8702679E0,9.70575E0,1.2229218E1,2.468583E0,3.8754334E0,8.256825E0,4.097004E1,1.4872998E0,1.5890033E0,2.7564776E0,4.903494E0,2.0274487E0,1.1375415E0,1.7327265E0,2.5440264E0,7.161724E0,1.4072686E0,1.0613143E0,1.4149824E0,2.4604511E0,7.1895385E0,1.0672876E0,3.7858307E1,3.111733E0,1.3121467E0,1.4443309E0,1.0124679E0,1.0149807E0,3.171191E0,3.9905334E0,1.5180916E0,5.671447E0],"tree_param":{"num_deleted":"0","num_feature":"20","num_nodes":"49","size_leaf_vector":"1"}},{"base_weights":[9.741863E-3,-6.113454E-1,8.318723E-1,-8.6193204E-1,-1.2657763E-1,5.173948E-1,1.1256393E-1,8.40273E-3,-9.073507E-1,-5.1772505E-1,2.3213129E-1,1.0185641E0,-9.755891E-2,5.28549E-3,-9.5511395E-1,1.5852247E-1,-9.132474E-1,-1.21024676E-1,6.1391914E-1,1.1184746E-1,3.57818E-1,5.259188E-1,-4.1468006E-1,4.3159482E-4,-9.922912E-1,-4.8315894E-2,5.5676615E-1,-1.1521224E-1,-2.440972E-1,5.6510866E-1,-4.9229875E-1,-2.7766297E-2,9.404767E-1,6.8812594E-2,-1.8897284E-2,-1.2188229E-2,8.334489E-2,-6.000725E-1,5.1238656E-2,-1.0521773E-1,-2.9861262E-2,-6.670458E-3,9.250378E-2,-5.8020283E-2,1.9184785E-2,8.9931936E-4,8.663454E-2,-8.534989E-2,1.8905198E-2,1.15014724E-1,3.2845348E-2,1.4284827E-2,-7.944685E-2],"categories":[],"categories_nodes":[],"categories_segments":[],"categories_sizes":[],"default_left":[0,0,0,0,0,0,0,0,0,0,0,0,0,0,0,0,0,0,0,0,0,0,0,0,0,0,0,0,0,0,0,0,0,0,0,0,0,0,0,0,0,0,0,0,0,0,0,0,0,0,0,0,0],"id":13,"left_children":[1,3,5,7,9,11,-1,-1,13,15,17,19,21,-1,23,25,27,29,31,-1,33,35,37,-1,39,-1,41,-1,43,45,47,-1,49,-1,-1,-1,-1,51,-1,-1,-1,-1,-1,-1,-1,-1,-1,-1,-1,-1,-1,-1,-1],"loss_changes":[6.0999264E1,8.158688E0,4.166603E0,1.9965591E0,3.5388207E0,8.321486E0,0E0,0E0,2.010315E0,3.3451068E0,1.8810399E0,5.7592106E-1,2.767035E0,0E0,1.4581604E0,1.6151388E0,9.491625E-1,2.2642803E0,2.1838179E0,0E0,7.4637836E-1,1.0553058E0,1.8722708E0,0E0,1.3160744E0,0E0,9.146948E-1,0E0,5.939312E-1,5.2878594E-1,1.5379053E0,0E0,2.7171516E-1,0E0,0E0,0E0,0E0,1.2757611E0,0E0,0E0,0E0,0E0,0E0,0E0,0E0,0E0,0E0,0E0,0E0,0E0,0E0,0E0,0E0],"parents":[2147483647,0,0,1,1,2,2,3,3,4,4,5,5,8,8,9,9,10,10,11,11,12,12,14,14,15,15,16,16,17,17,18,18,20,20,21,21,22,22,24,24,26,26,28,28,29,29,30,30,32,32,37,37],"right_children":[2,4,6,8,10,12,-1,-1,14,16,18,20,22,-1,24,26,28,30,32,-1,34,36,38,-1,40,-1,42,-1,44,46,48,-1,50,-1,-1,-1,-1,52,-1,-1,-1,-1,-1,-1,-1,-1,-1,-1,-1,-1,-1,-1,-1],"split_conditions":[7.711125E-2,-6.865836E-1,-8.257632E-2,-1.9670945E0,6.3193604E-2,-7.848149E-1,1.1256393E-1,8.40273E-3,-1.7419461E0,-7.2396475E-1,-6.985187E-2,2.538034E0,-4.4258928E-1,5.28549E-3,-1.6065772E0,-5.387263E-1,4.153115E-1,-7.74615E-1,1.343508E-1,1.1184746E-1,-5.387862E-1,-6.9941455E-1,1.0445265E0,4.3159482E-4,1.2186652E0,-4.8315894E-2,-1.5032046E-1,-1.1521224E-1,-3.804559E-1,7.8991973E-1,-3.1916785E-1,-2.7766297E-2,1.9340637E-1,6.8812594E-2,-1.8897284E-2,-1.2188229E-2,8.334489E-2,-5.9964E-1,5.1238656E-2,-1.0521773E-1,-2.9861262E-2,-6.670458E-3,9.250378E-2,-5.8020283E-2,1.9184785E-2,8.9931936E-4,8.663454E-2,-8.534989E-2,1.8905198E-2,1.15014724E-1,3.2845348E-2,1.4284827E-2,-7.944685E-2],"split_indices":[5,5,14,7,2,14,0,0,14,4,13,5,17,0,12,11,10,3,18,0,1,19,16,0,8,0,7,0,12,15,14,0,15,0,0,0,0,16,0,0,0,0,0,0,0,0,0,0,0,0,0,0,0],"split_type":[0,0,0,0,0,0,0,0,0,0,0,0,0,0,0,0,0,0,0,0,0,0,0,0,0,0,0,0,0,0,0,0,0,0,0,0,0,0,0,0,0,0,0,0,0,0,0,0,0,0,0,0,0],"sum_hessian":[1.1746643E2,6.706092E1,5.0405506E1,4.369568E1,2.3365246E1,2.5678219E1,2.4727285E1,1.9629173E0,4.173276E1,1.0965175E1,1.240007E1,1.3786389E1,1.189183E1,1.9724793E0,3.976028E1,4.26768E0,6.6974945E0,6.796383E0,5.603688E0,1.1373823E1,2.412566E0,3.787325E0,8.104506E0,1.5161859E0,3.8244095E1,1.552671E0,2.7150095E0,4.4036856E0,2.2938085E0,2.2030168E0,4.593366E0,1.5423692E0,4.0613184E0,1.342875E0,1.069691E0,1.4135036E0,2.3738213E0,7.04782E0,1.0566859E0,3.4729084E1,3.5150123E0,1.3122642E0,1.4027452E0,1.1083686E0,1.18544E0,1.135892E0,1.0671247E0,2.8368356E0,1.7565308E0,2.3701012E0,1.6912171E0,1.5166868E0,5.531133E0],"tree_param":{"num_deleted":"0","num_feature":"20","num_nodes":"53","size_leaf_vector":"1"}},{"base_weights":[1.1490511E-2,-7.128803E-1,6.6098225E-1,-4.929034E-1,-1.0723716E0,1.0474669E0,3.765619E-1,-7.398279E-1,5.397904E-2,-3.1684197E-2,-1.1107699E-1,3.1279378E-2,1.0683059E-1,9.103192E-1,7.307045E-2,-9.0910923E-1,-2.1605875E-1,-4.429096E-1,5.2843666E-1,3.541379E-1,1.0112207E0,-6.1101216E-1,6.3713455E-1,-4.1634458E-1,-1.0366313E0,-5.906879E-1,4.126375E-1,3.1193394E-2,-8.7101065E-2,-2.3052622E-1,1.0910405E0,-2.395328E-2,7.12206E-2,2.79688E-2,1.0750455E-1,-7.7815163E-1,4.252025E-2,7.771061E-1,-2.096404E-2,5.397206E-2,-7.870381E-2,-1.08651094E-1,-2.7551128E-2,-9.020661E-2,1.3762126E-2,-3.3037208E-2,1.0257236E-1,-7.513512E-2,5.609096E-2,1.2979245E-1,3.0654749E-2,-9.3600586E-2,-1.9797625E-3,1.04311565E-2,1.1380257E-1],"categories":[],"categories_nodes":[],"categories_segments":[],"categories_sizes":[],"default_left":[0,0,0,0,0,0,0,0,0,0,0,0,0,0,0,0,0,0,0,0,0,0,0,0,0,0,0,0,0,0,0,0,0,0,0,0,0,0,0,0,0,0,0,0,0,0,0,0,0,0,0,0,0,0,0],"id":14,"left_children":[1,3,5,7,9,11,13,15,17,-1,-1,-1,-1,19,21,23,25,27,29,31,33,35,37,39,41,43,45,-1,-1,47,49,-1,-1,-1,-1,51,-1,53,-1,-1,-1,-1,-1,-1,-1,-1,-1,-1,-1,-1,-1,-1,-1,-1,-1],"loss_changes":[5.3381603E1,3.7138538E0,6.1806393E0,4.7841806E0,2.1421051E-1,4.5469284E-2,5.768133E0,1.9556465E0,3.0301795E0,0E0,0E0,0E0,0E0,3.6969757E-1,9.6691885E0,7.0148945E-1,1.949041E0,2.319592E0,3.0368645E0,9.2108244E-1,1.8669319E-1,2.3016176E0,1.783206E0,2.3308814E0,2.18997E-1,1.2462837E0,1.8385534E0,0E0,0E0,1.9064013E0,2.3843622E-1,0E0,0E0,0E0,0E0,1.1967368E0,0E0,2.7815437E0,0E0,0E0,0E0,0E0,0E0,0E0,0E0,0E0,0E0,0E0,0E0,0E0,0E0,0E0,0E0,0E0,0E0],"parents":[2147483647,0,0,1,1,2,2,3,3,4,4,5,5,6,6,7,7,8,8,13,13,14,14,15,15,16,16,17,17,18,18,19,19,20,20,21,21,22,22,23,23,24,24,25,25,26,26,29,29,30,30,35,35,37,37],"right_children":[2,4,6,8,10,12,14,16,18,-1,-1,-1,-1,20,22,24,26,28,30,32,34,36,38,40,42,44,46,-1,-1,48,50,-1,-1,-1,-1,52,-1,54,-1,-1,-1,-1,-1,-1,-1,-1,-1,-1,-1,-1,-1,-1,-1,-1,-1],"split_conditions":[-3.4431034E-1,4.1593525E-1,-3.7236723E-1,-7.630622E-1,-1.2565653E0,-1.9078076E0,-8.180683E-1,8.5431737E-1,-2.3644884E-1,-3.1684197E-2,-1.1107699E-1,3.1279378E-2,1.0683059E-1,-9.7118986E-1,-4.399353E-1,-1.3431435E0,7.7868277E-1,-5.5605257E-1,1.13394395E-1,-6.8735445E-1,-1.2847278E0,9.778476E-1,1.376232E0,1.351993E0,1.5388473E0,2.0613538E-1,-1.0886683E0,3.1193394E-2,-8.7101065E-2,-7.202126E-1,9.0041585E-2,-2.395328E-2,7.12206E-2,2.79688E-2,1.0750455E-1,2.2421154E-1,4.252025E-2,-1.04342796E-1,-2.096404E-2,5.397206E-2,-7.870381E-2,-1.08651094E-1,-2.7551128E-2,-9.020661E-2,1.3762126E-2,-3.3037208E-2,1.0257236E-1,-7.513512E-2,5.609096E-2,1.2979245E-1,3.0654749E-2,-9.3600586E-2,-1.9797625E-3,1.04311565E-2,1.1380257E-1],"split_indices":[5,14,1,14,10,15,14,16,13,0,0,0,0,12,14,14,0,3,19,15,6,11,0,18,19,15,5,0,0,5,9,0,0,0,0,18,0,6,0,0,0,0,0,0,0,0,0,0,0,0,0,0,0,0,0],"split_type":[0,0,0,0,0,0,0,0,0,0,0,0,0,0,0,0,0,0,0,0,0,0,0,0,0,0,0,0,0,0,0,0,0,0,0,0,0,0,0,0,0,0,0,0,0,0,0,0,0,0,0,0,0,0,0],"sum_hessian":[1.11462166E2,5.2647457E1,5.881471E1,3.41325E1,1.851496E1,2.3796299E1,3.501841E1,2.3272057E1,1.0860441E1,1.3429205E0,1.7172037E1,1.0979639E0,2.2698336E1,1.1968918E1,2.3049492E1,1.7031723E1,6.2403336E0,5.3373013E0,5.5231404E0,2.5304594E0,9.438458E0,1.03789425E1,1.2670549E1,4.3782787E0,1.2653444E1,3.9481535E0,2.2921803E0,2.029741E0,3.30756E0,2.6025305E0,2.9206102E0,1.0765686E0,1.4538909E0,1.1893016E0,8.249156E0,9.151816E0,1.2271267E0,1.0943817E1,1.726733E0,1.0958831E0,3.2823956E0,1.1473989E1,1.1794559E0,2.5985885E0,1.349565E0,1.2447631E0,1.047417E0,1.6001549E0,1.0023756E0,1.7932296E0,1.1273806E0,7.3811436E0,1.7706722E0,4.271073E0,6.672744E0],"tree_param":{"num_deleted":"0","num_feature":"20","num_nodes":"55","size_leaf_vector":"1"}},{"base_weights":[1.2154993E-2,-5.5577654E-1,7.826374E-1,-7.981098E-1,-1.0781518E-1,4.7473645E-1,1.0879352E-1,1.1749113E-2,-8.4684163E-1,-7.463284E-1,9.576442E-2,9.6166813E-1,-8.135219E-2,6.86462E-3,-8.975533E-1,-1.0073272E-1,-4.789113E-6,2.387949E-1,-7.3688656E-2,1.0700586E-1,2.967225E-1,4.9927613E-1,-3.79795E-1,3.4320604E-3,-9.375415E-1,-1.3710956E-1,6.405135E-1,6.349065E-2,-2.1203598E-2,-1.1764804E-2,7.957684E-2,-5.98687E-1,3.574176E-2,-1.00208424E-1,-2.42604E-2,-3.844736E-2,4.7366183E-2,9.043136E-2,-1.7135475E-2,-8.354561E-2,1.3062457E-2],"categories":[],"categories_nodes":[],"categories_segments":[],"categories_sizes":[],"default_left":[0,0,0,0,0,0,0,0,0,0,0,0,0,0,0,0,0,0,0,0,0,0,0,0,0,0,0,0,0,0,0,0,0,0,0,0,0,0,0,0,0],"id":15,"left_children":[1,3,5,7,9,11,-1,-1,13,15,17,19,21,-1,23,-1,-1,25,-1,-1,27,29,31,-1,33,35,37,-1,-1,-1,-1,39,-1,-1,-1,-1,-1,-1,-1,-1,-1],"loss_changes":[4.713988E1,6.6474915E0,3.7799473E0,1.8885574E0,3.0523233E0,6.720443E0,0E0,0E0,1.8347244E0,1.1019211E0,2.3523128E0,6.3071346E-1,2.3338184E0,0E0,1.383318E0,0E0,0E0,2.5568714E0,0E0,0E0,6.899574E-1,9.4104683E-1,1.6245027E0,0E0,1.3178749E0,1.5826957E0,1.8854971E0,0E0,0E0,0E0,0E0,1.3374941E0,0E0,0E0,0E0,0E0,0E0,0E0,0E0,0E0,0E0],"parents":[2147483647,0,0,1,1,2,2,3,3,4,4,5,5,8,8,9,9,10,10,11,11,12,12,14,14,17,17,20,20,21,21,22,22,24,24,25,25,26,26,31,31],"right_children":[2,4,6,8,10,12,-1,-1,14,16,18,20,22,-1,24,-1,-1,26,-1,-1,28,30,32,-1,34,36,38,-1,-1,-1,-1,40,-1,-1,-1,-1,-1,-1,-1,-1,-1],"split_conditions":[7.711125E-2,-6.865836E-1,-8.257632E-2,-1.9670945E0,-6.484148E-1,-7.848149E-1,1.0879352E-1,1.1749113E-2,-1.7419461E0,4.6041566E-1,8.8695216E-1,2.538034E0,-4.4258928E-1,6.86462E-3,-1.6065772E0,-1.0073272E-1,-4.789113E-6,-6.355005E-1,-7.3688656E-2,1.0700586E-1,-5.387862E-1,-6.9941455E-1,9.56295E-1,3.4320604E-3,1.2186652E0,7.8991973E-1,7.152366E-1,6.349065E-2,-2.1203598E-2,-1.1764804E-2,7.957684E-2,4.5122603E-1,3.574176E-2,-1.00208424E-1,-2.42604E-2,-3.844736E-2,4.7366183E-2,9.043136E-2,-1.7135475E-2,-8.354561E-2,1.3062457E-2],"split_indices":[5,5,14,7,2,14,0,0,14,6,14,5,17,0,12,0,0,14,0,0,1,19,16,0,8,15,15,0,0,0,0,11,0,0,0,0,0,0,0,0,0],"split_type":[0,0,0,0,0,0,0,0,0,0,0,0,0,0,0,0,0,0,0,0,0,0,0,0,0,0,0,0,0,0,0,0,0,0,0,0,0,0,0,0,0],"sum_hessian":[1.0573425E2,6.102827E1,4.470598E1,3.9096577E1,2.1931694E1,2.3530169E1,2.1175812E1,1.9044125E0,3.7192165E1,4.6575584E0,1.7274136E1,1.2156311E1,1.1373857E1,1.9334953E0,3.5258667E1,3.1915665E0,1.4659921E0,1.5350484E1,1.9236522E0,9.928637E0,2.2276745E0,3.63294E0,7.7409167E0,1.456583E0,3.3802086E1,8.27031E0,7.0801735E0,1.1892191E0,1.0384555E0,1.3750385E0,2.2579014E0,6.1135855E0,1.6273313E0,3.0525072E1,3.2770133E0,6.1500387E0,2.1202712E0,5.2578683E0,1.8223053E0,4.5053835E0,1.6082017E0],"tree_param":{"num_deleted":"0","num_feature":"20","num_nodes":"41","size_leaf_vector":"1"}},{"base_weights":[1.2690507E-2,-5.267067E-1,7.582339E-1,-7.6350915E-1,-1.0319854E-1,4.5468017E-1,1.07009254E-1,1.8756133E-2,-8.135633E-1,-4.6248466E-1,2.2115259E-1,9.3505734E-1,-7.198054E-2,-8.61251E-1,1.728559E-2,1.8397641E-1,-8.458188E-1,-3.5285455E-1,4.0740496E-1,2.6035933E-2,1.0393864E-1,4.731876E-1,-3.5180065E-1,-9.536425E-1,-3.4724957E-1,-4.1930474E-2,5.440959E-1,-1.0623785E-1,-1.22914165E-2,1.4417613E-2,-7.4154936E-2,9.595772E-2,1.0997952E-1,-1.1090734E-2,7.607176E-2,-5.2125007E-1,4.6269845E-2,-1.02985635E-1,5.44244E-3,-6.8071984E-2,7.6134466E-2,-3.9831866E-3,8.612352E-2,-2.119285E-2,4.9250767E-2,1.3453311E-2,-6.999088E-2],"categories":[],"categories_nodes":[],"categories_segments":[],"categories_sizes":[],"default_left":[0,0,0,0,0,0,0,0,0,0,0,0,0,0,0,0,0,0,0,0,0,0,0,0,0,0,0,0,0,0,0,0,0,0,0,0,0,0,0,0,0,0,0,0,0,0,0],"id":16,"left_children":[1,3,5,7,9,11,-1,-1,13,15,17,19,21,23,-1,25,27,29,31,-1,-1,33,35,37,39,-1,41,-1,-1,-1,-1,-1,43,-1,-1,45,-1,-1,-1,-1,-1,-1,-1,-1,-1,-1,-1],"loss_changes":[4.1216564E1,5.886467E0,3.585741E0,1.9612885E0,2.7228794E0,6.0222797E0,0E0,0E0,1.8555565E0,2.8797328E0,1.4795899E0,6.0091305E-1,2.0209363E0,1.3203144E0,0E0,1.2955779E0,9.777179E-1,8.0182016E-1,1.5200117E0,0E0,0E0,8.484671E-1,1.4290679E0,2.2767334E0,3.0584042E0,0E0,6.846713E-1,0E0,0E0,0E0,0E0,0E0,1.0355972E0,0E0,0E0,9.839871E-1,0E0,0E0,0E0,0E0,0E0,0E0,0E0,0E0,0E0,0E0,0E0],"parents":[2147483647,0,0,1,1,2,2,3,3,4,4,5,5,8,8,9,9,10,10,11,11,12,12,13,13,15,15,16,16,17,17,18,18,21,21,22,22,23,23,24,24,26,26,32,32,35,35],"right_children":[2,4,6,8,10,12,-1,-1,14,16,18,20,22,24,-1,26,28,30,32,-1,-1,34,36,38,40,-1,42,-1,-1,-1,-1,-1,44,-1,-1,46,-1,-1,-1,-1,-1,-1,-1,-1,-1,-1,-1],"split_conditions":[7.711125E-2,-6.865836E-1,-8.257632E-2,-1.8418977E0,6.3193604E-2,-7.848149E-1,1.07009254E-1,1.8756133E-2,1.8286253E0,-7.2396475E-1,-1.0684375E0,-1.1766449E0,-4.4258928E-1,1.1903614E0,1.728559E-2,-5.387263E-1,7.936393E-1,-1.361675E0,-5.2466875E-1,2.6035933E-2,1.0393864E-1,-6.9941455E-1,1.0445265E0,1.6494809E0,1.0556942E0,-4.1930474E-2,-1.5032046E-1,-1.0623785E-1,-1.22914165E-2,1.4417613E-2,-7.4154936E-2,9.595772E-2,-2.0388347E-1,-1.1090734E-2,7.607176E-2,-5.9964E-1,4.6269845E-2,-1.02985635E-1,5.44244E-3,-6.8071984E-2,7.6134466E-2,-3.9831866E-3,8.612352E-2,-2.119285E-2,4.9250767E-2,1.3453311E-2,-6.999088E-2],"split_indices":[5,5,14,6,2,14,0,0,10,4,9,11,17,16,0,11,7,9,6,0,0,19,16,19,0,0,7,0,0,0,0,0,13,0,0,16,0,0,0,0,0,0,0,0,0,0,0],"split_type":[0,0,0,0,0,0,0,0,0,0,0,0,0,0,0,0,0,0,0,0,0,0,0,0,0,0,0,0,0,0,0,0,0,0,0,0,0,0,0,0,0,0,0,0,0,0,0],"sum_hessian":[1.0049896E2,5.8481434E1,4.2017525E1,3.6993748E1,2.1487686E1,2.2537842E1,1.9479681E1,1.712257E0,3.528149E1,9.992758E0,1.1494928E1,1.13813E1,1.1156543E1,3.3775528E1,1.5059625E0,3.9133248E0,6.0794334E0,2.5969493E0,8.897979E0,1.9923422E0,9.388957E0,3.549696E0,7.606847E0,2.79044E1,5.8711305E0,1.4013684E0,2.5119565E0,4.3166904E0,1.7627431E0,1.4157201E0,1.1812292E0,2.3356156E0,6.5623627E0,1.3736032E0,2.1760926E0,6.5948763E0,1.0119705E0,2.592291E1,1.9814885E0,4.81017E0,1.06096E0,1.191862E0,1.3200943E0,3.8057218E0,2.7566411E0,1.4648807E0,5.129996E0],"tree_param":{"num_deleted":"0","num_feature":"20","num_nodes":"47","size_leaf_vector":"1"}},{"base_weights":[1.4434737E-2,-5.756607E-1,6.4171976E-1,-3.46219E-1,-9.96235E-1,3.335274E-1,1.03155494E-1,-6.454268E-1,2.8468323E-1,-1.0620516E-1,-2.5541142E-2,8.5489494E-1,-1.3070917E-1,1.7678806E-1,-7.341678E-1,-2.4831842E-1,6.799357E-1,9.474991E-1,2.3664084E-1,-6.2441784E-1,1.6101193E-1,-2.3724524E-2,5.143295E-2,-8.6104935E-1,-2.3743715E-2,4.6182763E-2,-5.7696265E-1,1.0564504E0,-1.7515948E-2,1.4793596E-2,1.0447732E-1,-2.3882583E-2,5.9265405E-2,-8.552926E-2,2.372088E-2,-5.9017804E-2,3.156021E-1,4.5561213E-5,-9.431594E-2,-7.246687E-2,6.644649E-2,5.011587E-3,-8.502644E-2,1.7448366E-2,1.2743445E-1,9.74149E-2,-5.852544E-3],"categories":[],"categories_nodes":[],"categories_segments":[],"categories_sizes":[],"default_left":[0,0,0,0,0,0,0,0,0,0,0,0,0,0,0,0,0,0,0,0,0,0,0,0,0,0,0,0,0,0,0,0,0,0,0,0,0,0,0,0,0,0,0,0,0,0,0],"id":17,"left_children":[1,3,5,7,9,11,-1,13,15,-1,-1,17,19,21,23,25,27,29,31,33,35,-1,-1,37,39,-1,41,43,-1,-1,-1,-1,-1,-1,-1,-1,45,-1,-1,-1,-1,-1,-1,-1,-1,-1,-1],"loss_changes":[3.6095768E1,4.505001E0,5.3335896E0,6.611707E0,5.677738E-1,6.8573103E0,0E0,1.8374205E0,2.6227348E0,0E0,0E0,5.3494644E-1,2.348783E0,5.532738E-1,1.9011402E0,1.5949442E0,2.4245045E0,7.16506E-1,6.595592E-1,1.3970125E0,1.4180442E0,0E0,0E0,1.2778959E0,2.535872E0,0E0,7.857162E-1,7.330594E-1,0E0,0E0,0E0,0E0,0E0,0E0,0E0,0E0,2.3849306E0,0E0,0E0,0E0,0E0,0E0,0E0,0E0,0E0,0E0,0E0],"parents":[2147483647,0,0,1,1,2,2,3,3,4,4,5,5,7,7,8,8,11,11,12,12,13,13,14,14,15,15,16,16,17,17,18,18,19,19,20,20,23,23,24,24,26,26,27,27,36,36],"right_children":[2,4,6,8,10,12,-1,14,16,-1,-1,18,20,22,24,26,28,30,32,34,36,-1,-1,38,40,-1,42,44,-1,-1,-1,-1,-1,-1,-1,-1,46,-1,-1,-1,-1,-1,-1,-1,-1,-1,-1],"split_conditions":[-1.9628257E-1,4.2728212E-1,-8.257632E-2,-6.355005E-1,1.0230565E0,-7.836852E-1,1.03155494E-1,-1.7419461E0,-2.3644884E-1,-1.0620516E-1,-2.5541142E-2,2.538034E0,-5.7130826E-1,2.731338E-2,1.0929592E0,-6.56577E-1,5.362624E-1,-1.0800027E0,-2.0108794E-1,1.082537E0,-1.0301222E0,-2.3724524E-2,5.143295E-2,-1.0984092E0,-1.0329263E0,4.6182763E-2,2.978489E-1,-8.130144E-1,-1.7515948E-2,1.4793596E-2,1.0447732E-1,-2.3882583E-2,5.9265405E-2,-8.552926E-2,2.372088E-2,-5.9017804E-2,-4.5335346E-1,4.5561213E-5,-9.431594E-2,-7.246687E-2,6.644649E-2,5.011587E-3,-8.502644E-2,1.7448366E-2,1.2743445E-1,9.74149E-2,-5.852544E-3],"split_indices":[5,14,14,14,8,14,0,14,13,0,0,5,14,9,19,4,18,2,19,7,19,0,0,7,5,0,18,10,0,0,0,0,0,0,0,0,17,0,0,0,0,0,0,0,0,0,0],"split_type":[0,0,0,0,0,0,0,0,0,0,0,0,0,0,0,0,0,0,0,0,0,0,0,0,0,0,0,0,0,0,0,0,0,0,0,0,0,0,0,0,0,0,0,0,0,0,0],"sum_hessian":[9.5516495E1,4.9259613E1,4.625688E1,3.3051678E1,1.6207933E1,2.6869888E1,1.9386993E1,2.2403643E1,1.0648036E1,1.4487243E1,1.7206904E0,1.2259817E1,1.4610071E1,2.0858037E0,2.031784E1,4.692246E0,5.95579E0,1.01995535E1,2.060263E0,5.0028276E0,9.607244E0,1.0702082E0,1.0155956E0,1.7059072E1,3.258767E0,1.3562853E0,3.3359604E0,3.97156E0,1.9842299E0,1.3796954E0,8.819859E0,1.0230772E0,1.0371857E0,3.9513938E0,1.0514338E0,1.1587774E0,8.448466E0,1.5709542E0,1.5488119E1,1.5882212E0,1.6705457E0,1.2604785E0,2.075482E0,1.1435605E0,2.8279994E0,2.4797578E0,5.968709E0],"tree_param":{"num_deleted":"0","num_feature":"20","num_nodes":"47","size_leaf_vector":"1"}},{"base_weights":[1.5028582E-2,-4.7547942E-1,7.134702E-1,-2.6986018E-1,-9.3830127E-1,4.1943398E-1,1.0383983E-1,-5.696709E-1,3.0386683E-1,-1.0059128E0,2.0771304E-3,8.860592E-1,-5.5963326E-2,-8.2814705E-1,-2.9802093E-1,6.777159E-1,-5.1879793E-1,-1.0531404E-1,-2.1676099E-2,1.0090996E-1,2.2747643E-2,4.3509683E-1,-3.0461773E-1,-9.929714E-2,-1.0430557E-1,1.2950099E-1,-5.731417E-1,1.8291171E-1,9.125152E-1,2.1055015E-2,-7.817381E-2,-9.807779E-3,7.0608504E-2,-5.1199824E-1,3.5767134E-2,-6.280809E-2,4.839197E-2,-7.303269E-2,1.3568292E-2,-4.2888433E-2,6.4528905E-2,1.2765584E-2,1.0764133E-1,-7.3857464E-2,1.3918312E-2],"categories":[],"categories_nodes":[],"categories_segments":[],"categories_sizes":[],"default_left":[0,0,0,0,0,0,0,0,0,0,0,0,0,0,0,0,0,0,0,0,0,0,0,0,0,0,0,0,0,0,0,0,0,0,0,0,0,0,0,0,0,0,0,0,0],"id":18,"left_children":[1,3,5,7,9,11,-1,13,15,17,-1,19,21,23,25,27,29,-1,-1,-1,-1,31,33,-1,35,-1,37,39,41,-1,-1,-1,-1,43,-1,-1,-1,-1,-1,-1,-1,-1,-1,-1,-1],"loss_changes":[3.173502E1,4.9270735E0,3.2148209E0,6.897602E0,1.080512E0,4.871065E0,0E0,1.5804768E0,4.6787634E0,3.413906E-1,0E0,6.6407776E-1,1.5619868E0,1.4203577E0,6.98803E0,1.0073438E0,1.1162704E0,0E0,0E0,0E0,0E0,6.973276E-1,1.3313046E0,0E0,1.3781155E0,0E0,1.5302792E0,1.550674E0,7.1208715E-1,0E0,0E0,0E0,0E0,1.1027756E0,0E0,0E0,0E0,0E0,0E0,0E0,0E0,0E0,0E0,0E0,0E0],"parents":[2147483647,0,0,1,1,2,2,3,3,4,4,5,5,7,7,8,8,9,9,11,11,12,12,13,13,14,14,15,15,16,16,21,21,22,22,24,24,26,26,27,27,28,28,33,33],"right_children":[2,4,6,8,10,12,-1,14,16,18,-1,20,22,24,26,28,30,-1,-1,-1,-1,32,34,-1,36,-1,38,40,42,-1,-1,-1,-1,44,-1,-1,-1,-1,-1,-1,-1,-1,-1,-1,-1],"split_conditions":[7.711125E-2,4.2728212E-1,-8.257632E-2,-6.355005E-1,-2.9130274E-1,-7.848149E-1,1.0383983E-1,-1.0137701E0,7.152366E-1,1.7123047E0,2.0771304E-3,2.538034E0,-4.4258928E-1,7.3247653E-1,-1.2012261E0,-1.8949957E-1,-6.626915E-1,-1.0531404E-1,-2.1676099E-2,1.0090996E-1,2.2747643E-2,-6.9941455E-1,9.56295E-1,-9.929714E-2,1.1943058E0,1.2950099E-1,1.0929592E0,-7.058089E-1,-4.5974138E-1,2.1055015E-2,-7.817381E-2,-9.807779E-3,7.0608504E-2,4.5122603E-1,3.5767134E-2,-6.280809E-2,4.839197E-2,-7.303269E-2,1.3568292E-2,-4.2888433E-2,6.4528905E-2,1.2765584E-2,1.0764133E-1,-7.3857464E-2,1.3918312E-2],"split_indices":[5,14,14,14,5,14,0,5,15,3,0,5,17,17,14,0,10,0,0,0,0,19,16,0,1,0,19,5,19,0,0,0,0,11,0,0,0,0,0,0,0,0,0,0,0],"split_type":[0,0,0,0,0,0,0,0,0,0,0,0,0,0,0,0,0,0,0,0,0,0,0,0,0,0,0,0,0,0,0,0,0,0,0,0,0,0,0,0,0,0,0,0,0],"sum_hessian":[9.0642105E1,5.343471E1,3.7207394E1,3.8093758E1,1.5340955E1,2.073478E1,1.6472614E1,2.5024075E1,1.3069682E1,1.4285065E1,1.0558898E0,1.0027993E1,1.0706785E1,1.177322E1,1.32508545E1,9.107221E0,3.9624615E0,1.3162801E1,1.1222645E0,8.000974E0,2.0270195E0,3.3470302E0,7.359755E0,9.286748E0,2.4864726E0,1.4055051E0,1.1845349E1,3.5033827E0,5.6038384E0,1.1027845E0,2.859677E0,1.3429072E0,2.004123E0,5.7775693E0,1.5821859E0,1.2794513E0,1.2070215E0,9.670529E0,2.17482E0,1.5392094E0,1.9641733E0,1.2753651E0,4.328473E0,4.186636E0,1.5909333E0],"tree_param":{"num_deleted":"0","num_feature":"20","num_nodes":"45","size_leaf_vector":"1"}},{"base_weights":[1.6265923E-2,-4.5046565E-1,6.910036E-1,-2.5108936E-1,-9.1448456E-1,4.0142107E-1,1.0237693E-1,-5.383674E-1,2.8303212E-1,-9.8515034E-1,1.9709158E-3,8.604575E-1,-4.8195954E-2,-8.0134374E-1,-2.7105808E-1,6.3049126E-1,-4.8685744E-1,-1.0355627E-1,-1.9929154E-2,1.6706282E-2,9.858922E-2,4.13141E-1,-2.8169236E-1,-9.329156E-1,5.660101E-3,1.2343575E-1,-5.3559995E-1,2.4466044E-1,9.624501E-2,1.9914735E-2,-7.405457E-1,-9.250479E-3,6.760979E-2,-4.7871822E-1,3.361879E-2,-1.0061234E-1,-3.9075267E-2,-7.1100265E-2,8.930502E-3,6.1626147E-2,-4.433619E-2,-8.564304E-2,-2.4703179E-2,-6.957405E-2,1.3066507E-2],"categories":[],"categories_nodes":[],"categories_segments":[],"categories_sizes":[],"default_left":[0,0,0,0,0,0,0,0,0,0,0,0,0,0,0,0,0,0,0,0,0,0,0,0,0,0,0,0,0,0,0,0,0,0,0,0,0,0,0,0,0,0,0,0,0],"id":19,"left_children":[1,3,5,7,9,11,-1,13,15,17,-1,19,21,23,25,27,29,-1,-1,-1,-1,31,33,35,-1,-1,37,39,-1,-1,41,-1,-1,43,-1,-1,-1,-1,-1,-1,-1,-1,-1,-1,-1],"loss_changes":[2.775871E1,4.5926685E0,3.0611706E0,5.9582405E0,1.0285978E0,4.357296E0,0E0,1.5365925E0,4.022301E0,3.5743523E-1,0E0,7.398534E-1,1.3563306E0,1.4147387E0,6.190217E0,1.0460439E0,9.973179E-1,0E0,0E0,0E0,0E0,6.30771E-1,1.1637275E0,2.432537E-2,0E0,0E0,1.434274E0,1.7991103E0,0E0,0E0,4.4357777E-3,0E0,0E0,9.714558E-1,0E0,0E0,0E0,0E0,0E0,0E0,0E0,0E0,0E0,0E0,0E0],"parents":[2147483647,0,0,1,1,2,2,3,3,4,4,5,5,7,7,8,8,9,9,11,11,12,12,13,13,14,14,15,15,16,16,21,21,22,22,23,23,26,26,27,27,30,30,33,33],"right_children":[2,4,6,8,10,12,-1,14,16,18,-1,20,22,24,26,28,30,-1,-1,-1,-1,32,34,36,-1,-1,38,40,-1,-1,42,-1,-1,44,-1,-1,-1,-1,-1,-1,-1,-1,-1,-1,-1],"split_conditions":[7.711125E-2,4.2728212E-1,-8.257632E-2,-6.355005E-1,-2.9130274E-1,-7.848149E-1,1.0237693E-1,-1.0137701E0,7.152366E-1,1.2785752E0,1.9709158E-3,-1.1766449E0,-4.4258928E-1,1.1140825E0,-1.2012261E0,-5.979563E-1,-6.626915E-1,-1.0355627E-1,-1.9929154E-2,1.6706282E-2,9.858922E-2,-6.9941455E-1,9.56295E-1,7.3247653E-1,5.660101E-3,1.2343575E-1,8.6382735E-1,-9.2885615E-3,9.624501E-2,1.9914735E-2,2.0069869E-1,-9.250479E-3,6.760979E-2,4.5122603E-1,3.361879E-2,-1.0061234E-1,-3.9075267E-2,-7.1100265E-2,8.930502E-3,6.1626147E-2,-4.433619E-2,-8.564304E-2,-2.4703179E-2,-6.957405E-2,1.3066507E-2],"split_indices":[5,14,14,14,5,14,0,5,15,8,0,11,17,10,14,5,10,0,0,0,0,19,16,17,0,0,15,6,0,0,9,0,0,11,0,0,0,0,0,0,0,0,0,0,0],"split_type":[0,0,0,0,0,0,0,0,0,0,0,0,0,0,0,0,0,0,0,0,0,0,0,0,0,0,0,0,0,0,0,0,0,0,0,0,0,0,0,0,0,0,0,0,0],"sum_hessian":[8.615647E1,5.1124714E1,3.5031754E1,3.683768E1,1.4287031E1,1.9910961E1,1.5120793E1,2.3948822E1,1.288886E1,1.32316E1,1.0554318E0,9.400138E0,1.0510824E1,1.1065185E1,1.2883637E1,9.005601E0,3.8832586E0,1.2135376E1,1.0962234E0,1.7972014E0,7.6029363E0,3.2735834E0,7.237241E0,9.518128E0,1.5470564E0,1.3776863E0,1.1505951E1,4.96818E0,4.037421E0,1.1064016E0,2.7768571E0,1.341738E0,1.9318455E0,5.6582103E0,1.5790305E0,7.631849E0,1.8862793E0,8.876621E0,2.6293292E0,3.2936037E0,1.6745763E0,1.6532712E0,1.1235858E0,4.0678105E0,1.5903997E0],"tree_param":{"num_deleted":"0","num_feature":"20","num_nodes":"45","size_leaf_vector":"1"}},{"base_weights":[1.6444126E-2,-4.9973696E-1,5.7915574E-1,-2.8786394E-1,-9.270565E-1,2.945115E-1,9.8247916E-1,-5.541477E-1,2.251531E-1,-1.0073296E-1,-1.8135894E-2,7.828586E-1,-1.023811E-1,1.0123682E-1,2.8661668E-2,1.9140353E-2,-6.429038E-1,-2.5766012E-1,5.84759E-1,8.879462E-1,1.6996685E-2,-5.5650634E-1,1.571391E-1,-7.7429724E-1,2.444568E-2,4.1838925E-2,-5.7333785E-1,8.7312806E-1,-3.129337E-2,1.0359934E-2,9.940057E-2,-7.940034E-2,2.6138907E-2,-5.6419075E-2,3.095714E-1,-1.0229998E-1,-3.347395E-2,5.8875915E-2,-6.708603E-2,2.5281187E-3,-8.2246296E-2,5.6106835E-3,1.1080988E-1,8.993884E-2,-1.497411E-3],"categories":[],"categories_nodes":[],"categories_segments":[],"categories_sizes":[],"default_left":[0,0,0,0,0,0,0,0,0,0,0,0,0,0,0,0,0,0,0,0,0,0,0,0,0,0,0,0,0,0,0,0,0,0,0,0,0,0,0,0,0,0,0,0,0],"id":20,"left_children":[1,3,5,7,9,11,13,15,17,-1,-1,19,21,-1,-1,-1,23,25,27,29,-1,31,33,35,37,-1,39,41,-1,-1,-1,-1,-1,-1,43,-1,-1,-1,-1,-1,-1,-1,-1,-1,-1],"loss_changes":[2.4378483E1,3.6979618E0,4.319067E0,4.3222866E0,6.592598E-1,4.9181867E0,4.6369553E-2,1.4806724E0,2.097024E0,0E0,0E0,5.773268E-1,1.8145366E0,0E0,0E0,0E0,1.6466537E0,1.4092795E0,2.0156028E0,6.802521E-1,0E0,1.2854869E0,1.2857492E0,1.3564034E0,1.9735042E0,0E0,6.407596E-1,9.6646404E-1,0E0,0E0,0E0,0E0,0E0,0E0,1.7339513E0,0E0,0E0,0E0,0E0,0E0,0E0,0E0,0E0,0E0,0E0],"parents":[2147483647,0,0,1,1,2,2,3,3,4,4,5,5,6,6,7,7,8,8,11,11,12,12,16,16,17,17,18,18,19,19,21,21,22,22,23,23,24,24,26,26,27,27,34,34],"right_children":[2,4,6,8,10,12,14,16,18,-1,-1,20,22,-1,-1,-1,24,26,28,30,-1,32,34,36,38,-1,40,42,-1,-1,-1,-1,-1,-1,44,-1,-1,-1,-1,-1,-1,-1,-1,-1,-1],"split_conditions":[-1.9628257E-1,4.2728212E-1,-8.257632E-2,-6.355005E-1,1.0230565E0,-7.836852E-1,-3.5347898E-2,-1.7419461E0,-2.3644884E-1,-1.0073296E-1,-1.8135894E-2,2.538034E0,-5.7130826E-1,1.0123682E-1,2.8661668E-2,1.9140353E-2,1.0929592E0,-6.56577E-1,5.830609E-1,-1.0800027E0,1.6996685E-2,1.082537E0,-1.0301222E0,9.238146E-2,1.623885E0,4.1838925E-2,2.978489E-1,-8.130144E-1,-3.129337E-2,1.0359934E-2,9.940057E-2,-7.940034E-2,2.6138907E-2,-5.6419075E-2,-4.5335346E-1,-1.0229998E-1,-3.347395E-2,5.8875915E-2,-6.708603E-2,2.5281187E-3,-8.2246296E-2,5.6106835E-3,1.1080988E-1,8.993884E-2,-1.497411E-3],"split_indices":[5,14,14,14,8,14,18,14,13,0,0,5,14,0,0,0,19,4,18,2,0,7,19,17,19,0,18,10,0,0,0,0,0,0,17,0,0,0,0,0,0,0,0,0,0],"split_type":[0,0,0,0,0,0,0,0,0,0,0,0,0,0,0,0,0,0,0,0,0,0,0,0,0,0,0,0,0,0,0,0,0,0,0,0,0,0,0,0,0,0,0,0,0],"sum_hessian":[8.193385E1,4.2792118E1,3.914173E1,2.9726711E1,1.3065408E1,2.3961315E1,1.5180416E1,1.9516443E1,1.0210269E1,1.147887E1,1.5865375E0,1.0306929E1,1.36543865E1,1.4119124E1,1.0612918E0,1.9531838E0,1.756326E1,4.4795027E0,5.7307663E0,8.415253E0,1.891676E0,4.5493226E0,9.105064E0,1.4540202E1,3.0230565E0,1.3223069E0,3.1571958E0,4.3581476E0,1.372619E0,1.2378354E0,7.1774173E0,3.5482175E0,1.0011048E0,1.1171774E0,7.987887E0,8.438401E0,6.1018014E0,1.7533044E0,1.2697523E0,1.191846E0,1.9653497E0,1.2501186E0,3.108029E0,2.2065535E0,5.781334E0],"tree_param":{"num_deleted":"0","num_feature":"20","num_nodes":"45","size_leaf_vector":"1"}},{"base_weights":[1.6055914E-2,-4.0876755E-1,6.482524E-1,-6.3624E-1,-3.910447E-2,3.6898142E-1,9.963822E-2,2.459122E-2,-6.9657195E-1,-6.651609E-1,1.6213764E-1,8.1373155E-1,-3.670629E-2,1.2657957E-2,-7.583923E-1,-9.453436E-2,-5.8640894E-3,2.778912E-1,-5.626713E-2,1.2068785E-2,9.5376804E-2,3.8242474E-1,-2.4576712E-1,1.6126297E-2,-8.089294E-1,-7.879793E-3,5.674098E-1,6.357925E-2,-7.932956E-3,-7.4384354E-2,1.8689591E-2,-8.897445E-2,-1.0661739E-2,-4.609195E-2,2.7748305E-2,8.041138E-2,-1.2996666E-2,3.446145E-2,-7.7450685E-2],"categories":[],"categories_nodes":[],"categories_segments":[],"categories_sizes":[],"default_left":[0,0,0,0,0,0,0,0,0,0,0,0,0,0,0,0,0,0,0,0,0,0,0,0,0,0,0,0,0,0,0,0,0,0,0,0,0,0,0],"id":21,"left_children":[1,3,5,7,9,11,-1,-1,13,15,17,19,21,-1,23,-1,-1,25,-1,-1,-1,27,29,-1,31,33,35,-1,-1,-1,37,-1,-1,-1,-1,-1,-1,-1,-1],"loss_changes":[2.1493332E1,4.001894E0,2.7584543E0,1.7455902E0,2.5404077E0,3.5355518E0,0E0,0E0,1.5181589E0,7.7600026E-1,1.4496759E0,7.8861094E-1,1.068179E0,0E0,1.3452568E0,0E0,0E0,1.1596057E0,0E0,0E0,0E0,5.2908546E-1,1.0711689E0,0E0,1.320818E0,1.1637751E0,1.2516031E0,0E0,0E0,0E0,1.8744987E0,0E0,0E0,0E0,0E0,0E0,0E0,0E0,0E0],"parents":[2147483647,0,0,1,1,2,2,3,3,4,4,5,5,8,8,9,9,10,10,11,11,12,12,14,14,17,17,21,21,22,22,24,24,25,25,26,26,30,30],"right_children":[2,4,6,8,10,12,-1,-1,14,16,18,20,22,-1,24,-1,-1,26,-1,-1,-1,28,30,-1,32,34,36,-1,-1,-1,38,-1,-1,-1,-1,-1,-1,-1,-1],"split_conditions":[7.711125E-2,-6.865836E-1,-8.257632E-2,-1.9670945E0,-6.484148E-1,-7.848149E-1,9.963822E-2,2.459122E-2,-1.7419461E0,1.3592456E-1,8.8695216E-1,-1.1766449E0,-4.4258928E-1,1.2657957E-2,-1.6065772E0,-9.453436E-2,-5.8640894E-3,-6.355005E-1,-5.626713E-2,1.2068785E-2,9.5376804E-2,6.440752E-2,-1.3503244E-2,1.6126297E-2,1.2186652E0,-1.7464794E-1,7.152366E-1,6.357925E-2,-7.932956E-3,-7.4384354E-2,8.903832E-1,-8.897445E-2,-1.0661739E-2,-4.609195E-2,2.7748305E-2,8.041138E-2,-1.2996666E-2,3.446145E-2,-7.7450685E-2],"split_indices":[5,5,14,7,2,14,0,0,14,9,14,11,17,0,12,0,0,14,0,0,0,3,17,0,8,16,15,0,0,0,19,0,0,0,0,0,0,0,0],"split_type":[0,0,0,0,0,0,0,0,0,0,0,0,0,0,0,0,0,0,0,0,0,0,0,0,0,0,0,0,0,0,0,0,0,0,0,0,0,0,0],"sum_hessian":[7.804158E1,4.688752E1,3.115406E1,2.8579788E1,1.830773E1,1.8429636E1,1.2724425E1,1.6325941E0,2.6947193E1,3.8926303E0,1.44151E1,8.311757E0,1.0117879E1,1.8092375E0,2.5137957E1,2.2805102E0,1.6121203E0,1.2961691E1,1.4534092E0,1.7101278E0,6.6016293E0,3.0912342E0,7.0266447E0,1.1953036E0,2.3942654E1,7.0126243E0,5.949067E0,1.7526417E0,1.3385925E0,1.8082578E0,5.2183867E0,2.1232542E1,2.7101104E0,2.4723446E0,4.5402794E0,4.3272524E0,1.6218147E0,4.099455E0,1.1189318E0],"tree_param":{"num_deleted":"0","num_feature":"20","num_nodes":"39","size_leaf_vector":"1"}},{"base_weights":[1.5132204E-2,-3.8379368E-1,6.2662536E-1,-1.9733937E-1,-8.5709846E-1,3.5447666E-1,9.82463E-2,-4.6860978E-1,2.8198686E-1,-9.3666273E-1,3.0036825E-3,7.9003954E-1,-2.9446678E-2,-7.3837084E-1,-2.12276E-1,6.089965E-1,-4.414055E-1,-9.935028E-2,-1.878034E-2,9.4295844E-2,1.1782717E-2,-6.2170524E-2,1.2037088E-1,-8.833007E-1,1.0273025E-2,1.17646866E-1,-4.7201377E-1,-3.9794814E-4,7.6603824E-1,2.301653E-2,-7.027203E-2,-1.9251323E-1,5.71223E-1,-9.6440546E-2,-3.4147367E-2,1.0783646E-2,-6.452939E-2,2.2548137E-2,9.611806E-2,-6.487617E-2,4.1529886E-2,9.0352856E-2,-3.5876483E-3],"categories":[],"categories_nodes":[],"categories_segments":[],"categories_sizes":[],"default_left":[0,0,0,0,0,0,0,0,0,0,0,0,0,0,0,0,0,0,0,0,0,0,0,0,0,0,0,0,0,0,0,0,0,0,0,0,0,0,0,0,0,0,0],"id":22,"left_children":[1,3,5,7,9,11,-1,13,15,17,-1,19,21,23,25,27,29,-1,-1,-1,-1,-1,31,33,-1,-1,35,-1,37,-1,-1,39,41,-1,-1,-1,-1,-1,-1,-1,-1,-1,-1],"loss_changes":[1.8694971E1,3.9259615E0,2.5809784E0,4.6295905E0,9.326706E-1,3.150994E0,0E0,1.3966026E0,3.37358E0,3.153162E-1,0E0,7.933378E-1,1.0424763E0,1.375783E0,5.2164044E0,9.1360474E-1,9.805463E-1,0E0,0E0,0E0,0E0,0E0,1.4559313E0,7.0421696E-2,0E0,0E0,1.2350812E0,0E0,5.7811546E-1,0E0,0E0,2.0388274E0,8.718617E-1,0E0,0E0,0E0,0E0,0E0,0E0,0E0,0E0,0E0,0E0],"parents":[2147483647,0,0,1,1,2,2,3,3,4,4,5,5,7,7,8,8,9,9,11,11,12,12,13,13,14,14,15,15,16,16,22,22,23,23,26,26,28,28,31,31,32,32],"right_children":[2,4,6,8,10,12,-1,14,16,18,-1,20,22,24,26,28,30,-1,-1,-1,-1,-1,32,34,-1,-1,36,-1,38,-1,-1,40,42,-1,-1,-1,-1,-1,-1,-1,-1,-1,-1],"split_conditions":[8.7778434E-2,4.2728212E-1,-8.257632E-2,-6.355005E-1,-2.9130274E-1,-7.848149E-1,9.82463E-2,-1.0137701E0,7.152366E-1,1.2785752E0,3.0036825E-3,2.538034E0,-1.0301222E0,1.1140825E0,-1.2012261E0,-8.130144E-1,-6.626915E-1,-9.935028E-2,-1.878034E-2,9.4295844E-2,1.1782717E-2,-6.2170524E-2,9.260788E-1,7.3247653E-1,1.0273025E-2,1.17646866E-1,-8.6600673E-1,-3.9794814E-4,-1.8949957E-1,2.301653E-2,-7.027203E-2,2.9335204E-1,1.065054E-1,-9.6440546E-2,-3.4147367E-2,1.0783646E-2,-6.452939E-2,2.2548137E-2,9.611806E-2,-6.487617E-2,4.1529886E-2,9.0352856E-2,-3.5876483E-3],"split_indices":[5,14,14,14,5,14,0,5,15,8,0,5,19,10,14,10,10,0,0,0,0,0,5,17,0,0,3,0,0,0,0,11,19,0,0,0,0,0,0,0,0,0,0],"split_type":[0,0,0,0,0,0,0,0,0,0,0,0,0,0,0,0,0,0,0,0,0,0,0,0,0,0,0,0,0,0,0,0,0,0,0,0,0,0,0,0,0,0,0],"sum_hessian":[7.465156E1,4.5403557E1,2.9248005E1,3.358857E1,1.1814985E1,1.7703976E1,1.1544029E1,2.1463724E1,1.2124846E1,1.0791319E1,1.0236667E0,7.7986097E0,9.905366E0,9.541703E0,1.1922022E1,8.459063E0,3.665783E0,9.726378E0,1.0649409E0,6.025194E0,1.7734157E0,1.3638899E0,8.541476E0,8.0964365E0,1.4452671E0,1.3223486E0,1.0599673E1,1.9239664E0,6.5350966E0,1.0602294E0,2.6055536E0,5.3804984E0,3.1609776E0,6.363923E0,1.732513E0,2.5256667E0,8.074006E0,2.305151E0,4.2299457E0,3.034961E0,2.3455374E0,1.7272623E0,1.4337155E0],"tree_param":{"num_deleted":"0","num_feature":"20","num_nodes":"43","size_leaf_vector":"1"}},{"base_weights":[1.5688445E-2,-3.649711E-1,6.019E-1,-1.850817E-1,-8.348148E-1,3.3045176E-1,9.707697E-2,-4.383757E-1,2.5412917E-1,-9.176798E-1,2.8526667E-3,7.66074E-1,-3.6240425E-2,-6.7760426E-1,-1.4053285E-1,5.580406E-1,-4.1427416E-1,-1.708642E-2,-9.8044254E-2,7.282401E-3,9.2243515E-2,1.3936763E-1,-5.070431E-1,-8.460143E-1,3.1731952E-2,2.8659993E-1,-4.9302056E-1,1.1268992E-1,8.0958766E-1,2.1790488E-2,-6.6649103E-1,-5.6266338E-2,3.3083987E-1,-1.5279685E-2,-6.136262E-2,-8.169522E-3,-9.4042696E-2,-4.1636046E-2,7.1846046E-2,-7.2969474E-2,-4.718854E-3,6.855434E-2,-3.2036107E-2,1.0722504E-1,1.6793653E-2,-7.8666344E-2,-1.947229E-2,5.872592E-2,-5.51304E-2],"categories":[],"categories_nodes":[],"categories_segments":[],"categories_sizes":[],"default_left":[0,0,0,0,0,0,0,0,0,0,0,0,0,0,0,0,0,0,0,0,0,0,0,0,0,0,0,0,0,0,0,0,0,0,0,0,0,0,0,0,0,0,0,0,0,0,0,0,0],"id":23,"left_children":[1,3,5,7,9,11,-1,13,15,17,-1,19,21,23,25,27,29,-1,-1,-1,-1,31,33,35,-1,37,39,41,43,-1,45,-1,47,-1,-1,-1,-1,-1,-1,-1,-1,-1,-1,-1,-1,-1,-1,-1,-1],"loss_changes":[1.6355932E1,3.6036887E0,2.567627E0,3.8314934E0,8.865347E-1,2.9244792E0,0E0,1.4420648E0,2.8442955E0,3.482151E-1,0E0,8.3612156E-1,9.636428E-1,2.2294044E0,1.7781725E0,9.4716144E-1,8.778444E-1,0E0,0E0,0E0,0E0,1.3490149E0,2.516663E-2,6.65123E-1,0E0,1.983374E0,6.328629E-1,1.3378018E0,7.9100037E-1,0E0,4.6990395E-2,0E0,2.003708E0,0E0,0E0,0E0,0E0,0E0,0E0,0E0,0E0,0E0,0E0,0E0,0E0,0E0,0E0,0E0,0E0],"parents":[2147483647,0,0,1,1,2,2,3,3,4,4,5,5,7,7,8,8,9,9,11,11,12,12,13,13,14,14,15,15,16,16,21,21,22,22,23,23,25,25,26,26,27,27,28,28,30,30,32,32],"right_children":[2,4,6,8,10,12,-1,14,16,18,-1,20,22,24,26,28,30,-1,-1,-1,-1,32,34,36,-1,38,40,42,44,-1,46,-1,48,-1,-1,-1,-1,-1,-1,-1,-1,-1,-1,-1,-1,-1,-1,-1,-1],"split_conditions":[7.711125E-2,4.2728212E-1,-8.257632E-2,-6.355005E-1,-2.9130274E-1,-7.848149E-1,9.707697E-2,9.238146E-2,7.152366E-1,-1.0791618E0,2.8526667E-3,-1.1766449E0,3.2335263E-2,1.0929592E0,-1.8140604E-1,6.3193604E-2,-6.626915E-1,-1.708642E-2,-9.8044254E-2,7.282401E-3,9.2243515E-2,-9.6582675E-1,9.813741E-3,-1.2425008E0,3.1731952E-2,-1.174103E-1,-6.865836E-1,2.646051E-1,9.813741E-3,2.1790488E-2,2.0069869E-1,-5.6266338E-2,8.903832E-1,-1.5279685E-2,-6.136262E-2,-8.169522E-3,-9.4042696E-2,-4.1636046E-2,7.1846046E-2,-7.2969474E-2,-4.718854E-3,6.855434E-2,-3.2036107E-2,1.0722504E-1,1.6793653E-2,-7.8666344E-2,-1.947229E-2,5.872592E-2,-5.51304E-2],"split_indices":[5,14,14,14,5,14,0,17,15,11,0,11,1,19,19,2,10,0,0,0,0,19,9,0,0,8,5,18,9,0,9,0,19,0,0,0,0,0,0,0,0,0,0,0,0,0,0,0,0],"split_type":[0,0,0,0,0,0,0,0,0,0,0,0,0,0,0,0,0,0,0,0,0,0,0,0,0,0,0,0,0,0,0,0,0,0,0,0,0,0,0,0,0,0,0,0,0,0,0,0,0],"sum_hessian":[7.131222E1,4.346524E1,2.7846975E1,3.243916E1,1.1026082E1,1.713403E1,1.0712946E1,2.0575258E1,1.18639E1,1.0003034E1,1.0230484E0,7.3332005E0,9.800828E0,1.0703293E1,9.871965E0,8.269167E0,3.594733E0,1.064066E0,8.938968E0,1.6193441E0,5.713856E0,7.6510043E0,2.149824E0,9.281832E0,1.4214606E0,4.547898E0,5.3240676E0,3.5074322E0,4.761735E0,1.0639626E0,2.5307703E0,1.2241298E0,6.4268746E0,1.0600774E0,1.0897466E0,1.225563E0,8.056269E0,1.7443787E0,2.803519E0,3.0619168E0,2.2621508E0,1.258971E0,2.2484612E0,2.9025025E0,1.8592324E0,1.4850166E0,1.0457537E0,5.238456E0,1.188419E0],"tree_param":{"num_deleted":"0","num_feature":"20","num_nodes":"49","size_leaf_vector":"1"}},{"base_weights":[1.3583625E-2,-4.1127715E-1,4.9457103E-1,-2.1696472E-1,-8.513763E-1,2.3549365E-1,9.277704E-2,-4.5502773E-1,2.0702906E-1,-9.5485166E-2,-1.20178675E-2,6.972546E-1,-9.708365E-2,-6.238871E-1,-2.8630547E-2,7.895335E-2,-6.933268E-2,2.4711019E-1,9.246396E-2,-4.977406E-1,1.2940347E-1,-7.0194083E-1,1.1076336E-2,-4.3008626E-1,5.1430143E-2,1.843681E-1,-6.1659824E-2,-4.3221317E-2,7.3035486E-2,-7.732229E-2,1.1641656E-2,-5.2519407E-2,2.6980123E-1,-1.2158892E-2,-8.845477E-2,-7.134915E-2,7.4799857E-3,-5.1452633E-2,4.870348E-2,-4.553971E-2,4.612925E-2],"categories":[],"categories_nodes":[],"categories_segments":[],"categories_sizes":[],"default_left":[0,0,0,0,0,0,0,0,0,0,0,0,0,0,0,0,0,0,0,0,0,0,0,0,0,0,0,0,0,0,0,0,0,0,0,0,0,0,0,0,0],"id":24,"left_children":[1,3,5,7,9,11,-1,13,15,-1,-1,17,19,21,23,-1,25,27,-1,29,31,33,-1,35,-1,37,-1,-1,-1,-1,-1,-1,39,-1,-1,-1,-1,-1,-1,-1,-1],"loss_changes":[1.4348229E1,3.0049877E0,3.4760313E0,2.8414035E0,7.2374344E-1,3.4369326E0,0E0,1.25965E0,1.7408614E0,0E0,0E0,7.242279E-1,1.3013734E0,8.037944E-1,1.5466985E0,0E0,1.227606E0,1.7891587E0,0E0,9.5782113E-1,1.0149902E0,1.1198497E0,0E0,6.31551E-1,0E0,1.5730011E0,0E0,0E0,0E0,0E0,0E0,0E0,1.3883389E0,0E0,0E0,0E0,0E0,0E0,0E0,0E0,0E0],"parents":[2147483647,0,0,1,1,2,2,3,3,4,4,5,5,7,7,8,8,11,11,12,12,13,13,14,14,16,16,17,17,19,19,20,20,21,21,23,23,25,25,32,32],"right_children":[2,4,6,8,10,12,-1,14,16,-1,-1,18,20,22,24,-1,26,28,-1,30,32,34,-1,36,-1,38,-1,-1,-1,-1,-1,-1,40,-1,-1,-1,-1,-1,-1,-1,-1],"split_conditions":[-1.9628257E-1,4.2728212E-1,-8.257632E-2,-6.355005E-1,1.1086744E0,-7.836852E-1,9.277704E-2,8.5431737E-1,-3.8921958E-1,-9.5485166E-2,-1.20178675E-2,-2.0108794E-1,-5.7130826E-1,-7.630622E-1,7.7868277E-1,7.895335E-2,7.152366E-1,-2.0388347E-1,9.246396E-2,4.6027163E-1,-1.0301222E0,-1.3431435E0,1.1076336E-2,2.0613538E-1,5.1430143E-2,-5.696301E-1,-6.1659824E-2,-4.3221317E-2,7.3035486E-2,-7.732229E-2,1.1641656E-2,-5.2519407E-2,-9.84534E-1,-1.2158892E-2,-8.845477E-2,-7.134915E-2,7.4799857E-3,-5.1452633E-2,4.870348E-2,-4.553971E-2,4.612925E-2],"split_indices":[5,14,14,14,12,14,0,16,14,0,0,19,14,14,0,0,15,13,0,7,19,14,0,15,0,8,0,0,0,0,0,0,3,0,0,0,0,0,0,0,0],"split_type":[0,0,0,0,0,0,0,0,0,0,0,0,0,0,0,0,0,0,0,0,0,0,0,0,0,0,0,0,0,0,0,0,0,0,0,0,0,0,0,0,0],"sum_hessian":[6.8217705E1,3.6299206E1,3.1918505E1,2.6216911E1,1.0082293E1,2.093927E1,1.0979235E1,1.6742935E1,9.473977E0,8.564425E0,1.5178668E0,8.307857E0,1.26314125E1,1.1661611E1,5.081324E0,2.450991E0,7.022986E0,3.4885235E0,4.8193326E0,4.1291933E0,8.50222E0,1.0581854E1,1.079757E0,3.040763E0,2.0405614E0,5.2515764E0,1.7714097E0,1.4939702E0,1.9945533E0,2.6717653E0,1.4574279E0,1.0174856E0,7.484734E0,2.9313695E0,7.650484E0,1.682923E0,1.3578398E0,1.3754703E0,3.8761058E0,1.2756283E0,6.209106E0],"tree_param":{"num_deleted":"0","num_feature":"20","num_nodes":"41","size_leaf_vector":"1"}},{"base_weights":[1.1234965E-2,-3.290986E-1,5.5816317E-1,-6.4983356E-1,-9.631801E-2,2.9764748E-1,9.449449E-2,3.9383143E-2,-7.8275496E-1,1.0899091E-1,-2.0594572E-1,7.2294015E-1,-3.9047312E-2,-8.5205203E-1,1.1112453E-2,-5.3011686E-1,9.697097E-2,-9.360267E-4,9.0348385E-2,3.598193E-1,-2.3363863E-1,-2.9598117E-1,-9.6242644E-2,-1.0051456E-3,-7.3003936E-1,-6.79474E-2,2.6283437E-1,-7.605087E-3,5.930568E-2,-7.071914E-2,2.6716541E-2,-7.068177E-2,4.3292627E-2,4.917581E-2,-3.4724776E-2,-9.2627965E-2,-7.5948476E-3,-1.3137317E-2,6.143549E-2,3.3718377E-2,-7.201352E-2],"categories":[],"categories_nodes":[],"categories_segments":[],"categories_sizes":[],"default_left":[0,0,0,0,0,0,0,0,0,0,0,0,0,0,0,0,0,0,0,0,0,0,0,0,0,0,0,0,0,0,0,0,0,0,0,0,0,0,0,0,0],"id":25,"left_children":[1,3,5,7,9,11,-1,-1,13,-1,15,17,19,21,-1,23,25,-1,-1,27,29,31,-1,33,35,-1,37,-1,-1,-1,39,-1,-1,-1,-1,-1,-1,-1,-1,-1,-1],"loss_changes":[1.25370455E1,3.0387459E0,2.3212042E0,2.7075534E0,3.5072503E0,2.4471612E0,0E0,0E0,1.0657072E0,0E0,2.4031496E0,1.0021007E0,8.895035E-1,6.151304E-1,0E0,1.2393839E0,1.8818669E0,0E0,0E0,4.310401E-1,9.535549E-1,1.4657109E0,0E0,8.9012533E-1,1.0216169E0,0E0,1.6907716E0,0E0,0E0,0E0,1.6004684E0,0E0,0E0,0E0,0E0,0E0,0E0,0E0,0E0,0E0,0E0],"parents":[2147483647,0,0,1,1,2,2,3,3,4,4,5,5,8,8,10,10,11,11,12,12,13,13,15,15,16,16,19,19,20,20,21,21,23,23,24,24,26,26,30,30],"right_children":[2,4,6,8,10,12,-1,-1,14,-1,16,18,20,22,-1,24,26,-1,-1,28,30,32,-1,34,36,-1,38,-1,-1,-1,40,-1,-1,-1,-1,-1,-1,-1,-1,-1,-1],"split_conditions":[8.7778434E-2,-1.0137701E0,-8.257632E-2,-1.6130168E0,-1.2012261E0,-7.848149E-1,9.449449E-2,3.9383143E-2,1.9074907E0,1.0899091E-1,6.3193604E-2,-2.5244024E0,-4.4258928E-1,-8.915435E-1,1.1112453E-2,-8.480669E-1,-8.4417933E-1,-9.360267E-4,9.0348385E-2,-6.9941455E-1,-1.3503244E-2,9.5654947E-1,-9.6242644E-2,-7.70999E-1,6.032475E-1,-6.79474E-2,-6.985187E-2,-7.605087E-3,5.930568E-2,-7.071914E-2,8.903832E-1,-7.068177E-2,4.3292627E-2,4.917581E-2,-3.4724776E-2,-9.2627965E-2,-7.5948476E-3,-1.3137317E-2,6.143549E-2,3.3718377E-2,-7.201352E-2],"split_indices":[5,5,14,6,14,14,0,0,16,0,2,14,17,13,0,4,5,0,0,19,17,10,0,8,10,0,13,0,0,0,19,0,0,0,0,0,0,0,0,0,0],"split_type":[0,0,0,0,0,0,0,0,0,0,0,0,0,0,0,0,0,0,0,0,0,0,0,0,0,0,0,0,0,0,0,0,0,0,0,0,0,0,0,0,0],"sum_hessian":[6.536663E1,4.0538975E1,2.4827656E1,1.6295177E1,2.42438E1,1.5892715E1,8.934941E0,1.619148E0,1.4676029E1,1.2945205E0,2.294928E1,6.5155253E0,9.37719E0,1.36635685E1,1.01246E0,1.0723409E1,1.222587E1,1.4761777E0,5.0393476E0,2.796309E0,6.5808806E0,2.87265E0,1.0790919E1,3.216281E0,7.5071282E0,1.6069196E0,1.061895E1,1.2096572E0,1.5866519E0,1.7257345E0,4.8551464E0,1.8565446E0,1.0161054E0,1.1538631E0,2.0624177E0,5.4545283E0,2.0526001E0,5.300761E0,5.318189E0,3.8169584E0,1.038188E0],"tree_param":{"num_deleted":"0","num_feature":"20","num_nodes":"41","size_leaf_vector":"1"}},{"base_weights":[1.1296632E-2,-3.7238166E-1,4.5164847E-1,-1.8318734E-1,-8.190274E-1,2.0460168E-1,8.99833E-1,-5.138498E-1,9.918676E-2,-8.5032005E-3,-9.2960574E-2,6.55612E-1,-9.782148E-2,9.4260074E-2,2.7064709E-2,5.0358653E-2,-6.979339E-1,-3.2916147E-1,6.502635E-1,7.945706E-1,2.020265E-3,-4.762015E-1,1.1571091E-1,6.921599E-3,-8.2082003E-1,4.2210978E-2,-7.511603E-2,-2.4320029E-2,8.755674E-1,1.8739326E-2,8.6660504E-2,-7.500927E-2,1.2027625E-2,2.6961482E-1,-4.548242E-2,-9.669582E-2,-1.2059066E-2,-2.5309926E-2,5.7211783E-2,1.1200249E-1,2.8128147E-2,4.70968E-2,-4.138003E-2],"categories":[],"categories_nodes":[],"categories_segments":[],"categories_sizes":[],"default_left":[0,0,0,0,0,0,0,0,0,0,0,0,0,0,0,0,0,0,0,0,0,0,0,0,0,0,0,0,0,0,0,0,0,0,0,0,0,0,0,0,0,0,0],"id":26,"left_children":[1,3,5,7,9,11,13,15,17,-1,-1,19,21,-1,-1,-1,23,25,27,29,-1,31,33,-1,35,37,-1,-1,39,-1,-1,-1,-1,41,-1,-1,-1,-1,-1,-1,-1,-1,-1],"loss_changes":[1.093498E1,2.773993E0,3.1512632E0,2.4407651E0,7.3323774E-1,2.8893952E0,2.5008202E-2,2.5898466E0,3.6707118E0,0E0,0E0,7.2953033E-1,1.1272305E0,0E0,0E0,0E0,1.0503712E0,1.4270073E0,1.5697911E0,1.3951635E-1,0E0,9.0420353E-1,9.381007E-1,0E0,8.209305E-1,1.0340343E0,0E0,0E0,4.9856758E-1,0E0,0E0,0E0,0E0,1.2877524E0,0E0,0E0,0E0,0E0,0E0,0E0,0E0,0E0,0E0],"parents":[2147483647,0,0,1,1,2,2,3,3,4,4,5,5,6,6,7,7,8,8,11,11,12,12,16,16,17,17,18,18,19,19,21,21,22,22,24,24,25,25,28,28,33,33],"right_children":[2,4,6,8,10,12,14,16,18,-1,-1,20,22,-1,-1,-1,24,26,28,30,-1,32,34,-1,36,38,-1,-1,40,-1,-1,-1,-1,42,-1,-1,-1,-1,-1,-1,-1,-1,-1],"split_conditions":[-1.9628257E-1,4.2728212E-1,-8.257632E-2,-1.0643653E0,-9.374138E-1,-7.836852E-1,1.0440252E0,-1.6130168E0,2.4020584E-1,-8.5032005E-3,-9.2960574E-2,2.538034E0,-5.7130826E-1,9.4260074E-2,2.7064709E-2,5.0358653E-2,-1.1482633E0,1.6476084E-1,-6.3688236E-1,-1.1405785E0,2.020265E-3,4.6027163E-1,1.3116934E0,6.921599E-3,7.3247653E-1,-1.7117119E-1,-7.511603E-2,-2.4320029E-2,9.3895715E-1,1.8739326E-2,8.6660504E-2,-7.500927E-2,1.2027625E-2,1.0895365E0,-4.548242E-2,-9.669582E-2,-1.2059066E-2,-2.5309926E-2,5.7211783E-2,1.1200249E-1,2.8128147E-2,4.70968E-2,-4.138003E-2],"split_indices":[5,14,14,5,11,14,12,6,13,0,0,5,14,0,0,0,9,16,2,12,0,7,0,0,17,16,0,0,13,0,0,0,0,15,0,0,0,0,0,0,0,0,0],"split_type":[0,0,0,0,0,0,0,0,0,0,0,0,0,0,0,0,0,0,0,0,0,0,0,0,0,0,0,0,0,0,0,0,0,0,0,0,0,0,0,0,0,0,0],"sum_hessian":[6.2726406E1,3.3602726E1,2.912368E1,2.4594782E1,9.007943E0,1.9713682E1,9.409998E0,1.0951147E1,1.3643635E1,1.4109999E0,7.5969434E0,7.4441676E0,1.2269514E1,8.344659E0,1.0653394E0,1.4119028E0,9.539245E0,7.9032135E0,5.740421E0,5.9027905E0,1.541377E0,3.9824631E0,8.28705E0,1.3773725E0,8.161872E0,4.682467E0,3.2207468E0,1.1400427E0,4.600378E0,1.0079796E0,4.894811E0,2.5527518E0,1.4297113E0,6.9418864E0,1.345164E0,6.4374566E0,1.7244159E0,3.3422463E0,1.3402205E0,2.6327488E0,1.9676293E0,5.6021867E0,1.3396997E0],"tree_param":{"num_deleted":"0","num_feature":"20","num_nodes":"43","size_leaf_vector":"1"}},{"base_weights":[1.11826155E-2,-5.048613E-1,3.1077188E-1,-9.143558E-2,-3.124386E-1,6.814802E-1,1.0590639E-1,5.7270627E-2,-4.513388E-1,-4.7927876E-3,7.847043E-1,-1.14001565E-1,4.1647828E-1,1.6596068E-1,-6.0999686E-1,2.2727144E-1,8.9769346E-1,-4.973773E-1,1.0290703E-1,5.546953E-1,-4.127192E-2,-3.4025162E-2,5.8951784E-2,2.757364E-2,-7.609337E-1,-3.6252897E-2,6.311137E-2,1.8918395E-2,9.734779E-2,-7.331283E-1,1.2517214E-2,3.3233485E-1,-3.137886E-1,-1.15194306E-1,7.436269E-1,-8.862101E-2,5.279433E-3,-8.4059246E-2,-1.9748466E-2,5.1943313E-2,-1.5089591E-2,1.1415168E-2,-5.6716025E-2,1.2402868E-2,-2.9332215E-2,1.2213363E-2,8.3226345E-2],"categories":[],"categories_nodes":[],"categories_segments":[],"categories_sizes":[],"default_left":[0,0,0,0,0,0,0,0,0,0,0,0,0,0,0,0,0,0,0,0,0,0,0,0,0,0,0,0,0,0,0,0,0,0,0,0,0,0,0,0,0,0,0,0,0,0,0],"id":27,"left_children":[1,3,5,-1,7,9,11,-1,13,-1,15,17,19,21,23,25,27,29,31,33,-1,-1,-1,-1,35,-1,-1,-1,-1,37,-1,39,41,43,45,-1,-1,-1,-1,-1,-1,-1,-1,-1,-1,-1,-1],"loss_changes":[9.619575E0,1.5158253E0,2.9158292E0,0E0,2.3575654E0,1.0781403E0,1.8590126E0,0E0,1.6013343E0,0E0,5.6212425E-1,1.4078023E0,1.5137502E0,1.0406127E0,1.8673978E0,1.0360273E0,3.4069395E-1,9.821017E-1,1.1795635E0,1.3557713E0,0E0,0E0,0E0,0E0,1.1538115E0,0E0,0E0,0E0,0E0,9.567022E-2,0E0,7.781087E-1,5.53553E-1,1.6735108E-1,3.369465E-1,0E0,0E0,0E0,0E0,0E0,0E0,0E0,0E0,0E0,0E0,0E0,0E0],"parents":[2147483647,0,0,1,1,2,2,4,4,5,5,6,6,8,8,10,10,11,11,12,12,13,13,14,14,15,15,16,16,17,17,18,18,19,19,24,24,29,29,31,31,32,32,33,33,34,34],"right_children":[2,4,6,-1,8,10,12,-1,14,-1,16,18,20,22,24,26,28,30,32,34,-1,-1,-1,-1,36,-1,-1,-1,-1,38,-1,40,42,44,46,-1,-1,-1,-1,-1,-1,-1,-1,-1,-1,-1,-1],"split_conditions":[-6.865836E-1,3.4299967E-1,-4.1806528E-1,-9.143558E-2,5.362624E-1,-1.2088588E0,1.9894814E-1,5.7270627E-2,-9.907369E-1,-4.7927876E-3,-1.030086E0,-3.6172384E-1,1.2740636E0,-1.257474E0,-1.7419461E0,-6.177963E-1,-1.5179491E0,1.3592456E-1,1.8606843E-1,-8.4913963E-1,-4.127192E-2,-3.4025162E-2,5.8951784E-2,2.757364E-2,1.2186652E0,-3.6252897E-2,6.311137E-2,1.8918395E-2,9.734779E-2,-2.978668E-1,1.2517214E-2,4.6372306E-1,1.6476084E-1,-3.6714357E-1,-1.0702554E0,-8.862101E-2,5.279433E-3,-8.4059246E-2,-1.9748466E-2,5.1943313E-2,-1.5089591E-2,1.1415168E-2,-5.6716025E-2,1.2402868E-2,-2.9332215E-2,1.2213363E-2,8.3226345E-2],"split_indices":[5,1,18,0,18,7,11,0,7,0,10,2,19,5,14,6,4,9,9,0,0,0,0,0,8,0,0,0,0,11,0,15,16,10,13,0,0,0,0,0,0,0,0,0,0,0,0],"split_type":[0,0,0,0,0,0,0,0,0,0,0,0,0,0,0,0,0,0,0,0,0,0,0,0,0,0,0,0,0,0,0,0,0,0,0,0,0,0,0,0,0,0,0,0,0,0,0],"sum_hessian":[6.0207005E1,2.1862892E1,3.834411E1,5.7898045E0,1.6073088E1,1.281985E1,2.552426E1,1.7565134E0,1.4316575E1,1.6557286E0,1.1164121E1,1.53138485E1,1.0210412E1,2.9178624E0,1.1398712E1,2.3890705E0,8.77505E0,5.066327E0,1.0247521E1,9.035372E0,1.1750401E0,1.4188324E0,1.49903E0,1.5392419E0,9.85947E0,1.0125582E0,1.3765123E0,1.1857542E0,7.5892963E0,3.5459146E0,1.5204122E0,6.7393594E0,3.5081623E0,2.0735447E0,6.961827E0,8.466887E0,1.3925828E0,2.4792078E0,1.0667069E0,4.804302E0,1.9350573E0,1.5089841E0,1.9991783E0,1.0146265E0,1.0589182E0,1.1657623E0,5.7960644E0],"tree_param":{"num_deleted":"0","num_feature":"20","num_nodes":"47","size_leaf_vector":"1"}},{"base_weights":[1.0397632E-2,-2.8438362E-1,4.9565658E-1,-1.303806E-1,-7.4322855E-1,2.448845E-1,9.1251E-2,-3.6489397E-1,2.4963954E-1,-8.490487E-1,-3.0421298E-3,6.622685E-1,-5.616954E-2,-6.057315E-1,-8.189937E-2,5.254534E-1,-3.7521443E-1,-2.2089189E-2,-9.2256E-2,-4.665912E-3,8.615618E-2,3.2852387E-1,-2.3871681E-1,-7.8266215E-1,3.0857015E-2,2.797861E-1,-4.1941613E-1,-5.463296E-3,6.9020194E-1,-7.353199E-2,6.656073E-3,5.5363484E-2,-8.397779E-3,-5.134907E-1,1.3574326E-1,-3.283341E-3,-8.800311E-2,-2.9559687E-2,7.681863E-2,4.1457103E-3,-5.9309002E-2,9.110763E-2,2.6640264E-2,2.7153602E-2,-9.0076886E-2,-4.4431124E-2,7.80222E-2],"categories":[],"categories_nodes":[],"categories_segments":[],"categories_sizes":[],"default_left":[0,0,0,0,0,0,0,0,0,0,0,0,0,0,0,0,0,0,0,0,0,0,0,0,0,0,0,0,0,0,0,0,0,0,0,0,0,0,0,0,0,0,0,0,0,0,0],"id":28,"left_children":[1,3,5,7,9,11,-1,13,15,17,-1,19,21,23,25,27,29,-1,-1,-1,-1,31,33,35,-1,37,39,-1,41,-1,-1,-1,-1,43,45,-1,-1,-1,-1,-1,-1,-1,-1,-1,-1,-1,-1],"loss_changes":[8.590999E0,2.5447917E0,2.1482754E0,2.6936214E0,6.66728E-1,1.9890034E0,0E0,1.2088702E0,2.2200956E0,1.6366577E-1,0E0,9.7086024E-1,7.7687144E-1,1.8299124E0,1.2948472E0,8.557656E-1,7.135892E-1,0E0,0E0,0E0,0E0,3.8278863E-1,8.233136E-1,5.924039E-1,0E0,1.7040999E0,4.5598948E-1,0E0,3.8818645E-1,0E0,0E0,0E0,0E0,1.5924904E0,1.8011569E0,0E0,0E0,0E0,0E0,0E0,0E0,0E0,0E0,0E0,0E0,0E0,0E0],"parents":[2147483647,0,0,1,1,2,2,3,3,4,4,5,5,7,7,8,8,9,9,11,11,12,12,13,13,14,14,15,15,16,16,21,21,22,22,23,23,25,25,26,26,28,28,33,33,34,34],"right_children":[2,4,6,8,10,12,-1,14,16,18,-1,20,22,24,26,28,30,-1,-1,-1,-1,32,34,36,-1,38,40,-1,42,-1,-1,-1,-1,44,46,-1,-1,-1,-1,-1,-1,-1,-1,-1,-1,-1,-1],"split_conditions":[8.7778434E-2,4.2728212E-1,-8.257632E-2,-6.355005E-1,1.0230565E0,-7.848149E-1,9.1251E-2,9.238146E-2,7.152366E-1,-3.8722377E-2,-3.0421298E-3,-2.5244024E0,-4.4258928E-1,1.0929592E0,-1.8140604E-1,-8.130144E-1,2.140144E-1,-2.2089189E-2,-9.2256E-2,-4.665912E-3,8.615618E-2,6.440752E-2,2.8134835E-1,-1.2425008E0,3.0857015E-2,-1.7237496E-1,-6.962936E-1,-5.463296E-3,2.493086E-1,-7.353199E-2,6.656073E-3,5.5363484E-2,-8.397779E-3,-9.0815395E-1,-4.1608876E-1,-3.283341E-3,-8.800311E-2,-2.9559687E-2,7.681863E-2,4.1457103E-3,-5.9309002E-2,9.110763E-2,2.6640264E-2,2.7153602E-2,-9.0076886E-2,-4.4431124E-2,7.80222E-2],"split_indices":[5,14,14,14,8,14,0,17,15,18,0,14,17,19,19,10,11,0,0,0,0,3,8,0,0,10,10,0,6,0,0,0,0,7,14,0,0,0,0,0,0,0,0,0,0,0,0],"split_type":[0,0,0,0,0,0,0,0,0,0,0,0,0,0,0,0,0,0,0,0,0,0,0,0,0,0,0,0,0,0,0,0,0,0,0,0,0,0,0,0,0,0,0,0,0,0,0],"sum_hessian":[5.8072517E1,3.6384132E1,2.1688387E1,2.820259E1,8.18154E0,1.4533022E1,7.1553655E0,1.7464758E1,1.0737834E1,6.9575243E0,1.2240157E0,5.5871353E0,8.945887E0,8.819037E0,8.6457205E0,7.559922E0,3.1779115E0,1.1484915E0,5.8090324E0,1.3940582E0,4.193077E0,2.6215868E0,6.3243003E0,7.5097666E0,1.3092709E0,4.256002E0,4.389718E0,1.820003E0,5.739919E0,1.3847169E0,1.7931947E0,1.4746817E0,1.146905E0,3.4335346E0,2.8907654E0,1.0167874E0,6.4929795E0,2.1352427E0,2.1207592E0,1.4098182E0,2.9799001E0,3.0174909E0,2.722428E0,1.2330198E0,2.2005148E0,1.6848904E0,1.2058752E0],"tree_param":{"num_deleted":"0","num_feature":"20","num_nodes":"47","size_leaf_vector":"1"}},{"base_weights":[1.0492088E-2,-4.69312E-1,2.8630716E-1,-8.892395E-2,-2.82771E-1,6.2164736E-1,9.664943E-2,5.186407E-2,-4.161524E-1,-2.7362635E-2,7.31127E-1,-1.19585544E-1,4.0942305E-1,3.736771E-2,-5.1887757E-1,1.4483266E-1,8.6453164E-1,-4.7337747E-1,8.358505E-2,5.339052E-2,6.5656817E-1,-7.404E-1,1.3190919E-1,-3.7050206E-2,5.8270838E-2,9.29061E-2,1.7448982E-2,-7.024787E-1,1.1307984E-2,-1.5389726E-1,4.4869065E-1,-3.043574E-2,3.1469938E-1,8.386591E-1,-6.100512E-3,-4.2041386E-3,-8.407214E-2,4.5420326E-2,-3.7151635E-2,-1.8752383E-2,-8.1239514E-2,-4.044105E-2,2.9405465E-2,1.2951915E-2,7.5639986E-2,-1.4930593E-2,5.8214694E-2,2.6358638E-2,9.272157E-2],"categories":[],"categories_nodes":[],"categories_segments":[],"categories_sizes":[],"default_left":[0,0,0,0,0,0,0,0,0,0,0,0,0,0,0,0,0,0,0,0,0,0,0,0,0,0,0,0,0,0,0,0,0,0,0,0,0,0,0,0,0,0,0,0,0,0,0,0,0],"id":29,"left_children":[1,3,5,-1,7,9,11,-1,13,-1,15,17,19,-1,21,23,25,27,29,31,33,35,37,-1,-1,-1,-1,39,-1,41,43,-1,45,47,-1,-1,-1,-1,-1,-1,-1,-1,-1,-1,-1,-1,-1,-1,-1],"loss_changes":[7.6642675E0,1.4051685E0,2.2772844E0,0E0,1.9378434E0,1.4832983E0,1.7166941E0,0E0,1.359468E0,0E0,8.085232E-1,1.1431632E0,8.7173784E-1,0E0,1.9906945E0,9.862992E-1,2.619748E-1,8.520887E-1,9.8836166E-1,5.922722E-1,8.344104E-1,6.6159153E-1,8.4750736E-1,0E0,0E0,0E0,0E0,8.95679E-2,0E0,9.2337203E-1,3.3749563E-1,0E0,5.2881014E-1,2.5377274E-3,0E0,0E0,0E0,0E0,0E0,0E0,0E0,0E0,0E0,0E0,0E0,0E0,0E0,0E0,0E0],"parents":[2147483647,0,0,1,1,2,2,4,4,5,5,6,6,8,8,10,10,11,11,12,12,14,14,15,15,16,16,17,17,18,18,19,19,20,20,21,21,22,22,27,27,29,29,30,30,32,32,33,33],"right_children":[2,4,6,-1,8,10,12,-1,14,-1,16,18,20,-1,22,24,26,28,30,32,34,36,38,-1,-1,-1,-1,40,-1,42,44,-1,46,48,-1,-1,-1,-1,-1,-1,-1,-1,-1,-1,-1,-1,-1,-1,-1],"split_conditions":[-6.865836E-1,3.4299967E-1,-4.1041398E-1,-8.892395E-2,5.362624E-1,-1.6719725E0,1.9894814E-1,5.186407E-2,-1.9670945E0,-2.7362635E-2,-9.900137E-1,-3.6172384E-1,-3.34803E-1,3.736771E-2,1.1903614E0,-6.2273055E-1,1.0902443E0,1.3592456E-1,6.3183665E-2,-1.6363367E-1,1.1747618E0,-1.1996975E0,3.2158455E-1,-3.7050206E-2,5.8270838E-2,9.29061E-2,1.7448982E-2,-3.0372602E-1,1.1307984E-2,7.936393E-1,7.8875405E-1,-3.043574E-2,3.8915828E-2,-4.4501832E-1,-6.100512E-3,-4.2041386E-3,-8.407214E-2,4.5420326E-2,-3.7151635E-2,-1.8752383E-2,-8.1239514E-2,-4.044105E-2,2.9405465E-2,1.2951915E-2,7.5639986E-2,-1.4930593E-2,5.8214694E-2,2.6358638E-2,9.272157E-2],"split_indices":[5,1,18,0,18,15,11,0,7,0,0,2,13,0,16,19,12,9,13,12,13,6,17,0,0,0,0,3,0,7,8,0,17,5,0,0,0,0,0,0,0,0,0,0,0,0,0,0,0],"split_type":[0,0,0,0,0,0,0,0,0,0,0,0,0,0,0,0,0,0,0,0,0,0,0,0,0,0,0,0,0,0,0,0,0,0,0,0,0,0,0,0,0,0,0,0,0,0,0,0,0],"sum_hessian":[5.589935E1,2.0148228E1,3.575112E1,5.0386324E0,1.5109594E1,1.2092404E1,2.3658718E1,1.7437867E0,1.3365808E1,1.1542394E0,1.0938165E1,1.4353284E1,9.305433E0,1.2347177E0,1.213109E1,2.4141185E0,8.524047E0,4.750694E0,9.60259E0,4.3110485E0,4.9943852E0,8.947676E0,3.1834147E0,1.1796529E0,1.2344656E0,7.478326E0,1.0457208E0,3.2739007E0,1.4767934E0,6.168673E0,3.4339173E0,1.7501895E0,2.560859E0,3.8489375E0,1.1454475E0,1.3021564E0,7.645519E0,